tree
version=v4
num_class=1
num_tree_per_iteration=1
label_index=0
max_feature_idx=79
objective=binary sigmoid:1
feature_names=Column_0 Column_1 Column_2 Column_3 Column_4 Column_5 Column_6 Column_7 Column_8 Column_9 Column_10 Column_11 Column_12 Column_13 Column_14 Column_15 Column_16 Column_17 Column_18 Column_19 Column_20 Column_21 Column_22 Column_23 Column_24 Column_25 Column_26 Column_27 Column_28 Column_29 Column_30 Column_31 Column_32 Column_33 Column_34 Column_35 Column_36 Column_37 Column_38 Column_39 Column_40 Column_41 Column_42 Column_43 Column_44 Column_45 Column_46 Column_47 Column_48 Column_49 Column_50 Column_51 Column_52 Column_53 Column_54 Column_55 Column_56 Column_57 Column_58 Column_59 Column_60 Column_61 Column_62 Column_63 Column_64 Column_65 Column_66 Column_67 Column_68 Column_69 Column_70 Column_71 Column_72 Column_73 Column_74 Column_75 Column_76 Column_77 Column_78 Column_79
feature_infos=[-0.69703464106324431:1.4346489271675475] [-0.53441353641509071:1.8715502942832225] [-0.29159901076892047:10.678092616536977] [-40.707530120466323:60.751693305261981] [-0.0049364232113592614:611.94712200073911] [-0.49700578503772824:5.7338887958473244] [-0.53923952470580983:1.8546984581102157] [-1.194561767939438:2.4513757022303166] [-0.3925122727119999:3.6366219066576178] [-0.48913247169372676:11.041323943704338] [-1.2305852180068466:2.1203542019121842] [-0.53441351771257617:1.8715502942806119] [-0.65498425771374957:18.320032557776408] [-0.067150858915225584:81.523561685204498] [-0.53441350361299123:1.8715502942786211] [-24.898237248150711:49.344910973398683] [-0.53923952700528344:1.8546984581104411] [-0.0056993257560139197:617.64384427375353] [-0.0031286085383165178:625.35239835226935] [-0.47039331202164752:2.1258805651428569] [-1.1951849906071357:2.9090116137156055] [-0.006193132332750392:616.35877002883899] [-1.3832233714747764:2.4717761554420292] [-0.023517208608886033:415.76990818714563] [-1.4191763275983365:2.8098896835371199] [-0.68827347894191593:5.0128722088823743] [-0.0047181195009730371:615.90303690684209] [-1.5045993218588753:2.439842915208339] [-2.061410168717245:1.0911144199617653] [-0.57867715074222259:9.5209134053604991] [-0.45243529110016217:25.114393280285228] [-0.62906410335975604:5.4481894864338285] [-0.040524112109651532:410.94847934588364] [-0.61979634246375626:15.811755345083448] [-0.70447995137912811:10.251683461691956] [-0.016425440783150592:172.54940762593873] [-0.58948411503043907:15.733622922563788] [-0.53441350681099697:1.8715502942790729] [-0.17044250030253125:97.625705026528266] [-0.13076224805008374:103.58786134912785] [-0.069648631861207705:412.34087084504] [-0.56211771939821653:3.8210118601123497] [-0.064979804650493328:327.20833472073946] [-0.6711631821982369:1.4901909435544805] [-0.67116317380479751:1.4901909435535474] [-0.17189984480268083:18.736503065691213] [-203.90310928227223:0.016883183700854565] [-0.61019424037003278:3.9592416645988791] [-0.6711631762662319:1.4901909435538196] [-0.0045551391497901921:618.80830840384499] [-0.069278085550942628:242.34588493913915] [-0.1325422304242527:65.466528271849342] [-0.61607315670547325:14.443738291846957] [-0.02691992316637554:189.29175236871603] [-0.26937430815239138:31.02354829341327] [-0.5392395318002059:1.8546984581109112] [-0.0054874909295015975:618.57676705452161] [-0.19774749570345182:11.331046727175382] [-0.53923954941831587:1.8546984581126131] [-0.004507097114314601:281.93336255614946] [-0.0034362766187487552:606.98758453428241] [-187.58129496977702:0.029484390996896079] [-0.0056479783408059101:611.93819032069928] [-0.52445484437336676:8.5145560571659171] [-0.045740188066129464:224.79095088507756] [-0.0035287457573457623:606.98313325535764] [-0.0049574737305001408:615.90089794402422] [-1.4016836766785796:2.7248204775622709] [-1.4670317651397513:11.148658170465238] [-0.0080685338654168971:620.08006789896604] [-0.016386352735868095:29.157949815454785] [-1.5092556196734384:2.3899917049055976] [-0.037573592666191521:294.60592055760958] [-0.2327239085848303:38.866380265851397] [-0.0048783789905657215:618.80756938020181] [-0.0029174587225870969:616.33877282222454] [-0.18999365012072911:18.32252043196684] [-0.046743841864508251:221.24046945535329] [-0.060827805392970058:261.37846955656551] [-0.023433904933538693:181.92913510529567]
tree_sizes=3461 3502 3514 3509 3512 3517 3515 3518 3522 3525 3539 3539 3540 3527 3540 3536 3537 3537 3549 3555 3555 3546 3556 3564 3558 3561 3562 3553 3557 3566 3562 3558 3542 3553 3544 3545 3550 3555 3548 3546 3551 3544 3545 3552 3548 3541 3548 3551 3547 3534 3561 3544 3547 3545 3552 3543 3553 3548 3555 3559 3569 3566 3547 3540 3556 3545 3560 3544 3547 3553 3555 3554 3550 3553 3551 3550 3552 3545 3562 3557 3581 3568 3560 3551 3569 3551 3565 3557 3563 3555 3558 3551 3557 3570 3551 3558 3567 3553 3561 3557 3567 3587 3586 3548 3550 3557 3561 3566 3557 3561 3549 3575 3570 3552 3568 3558 3558 3558 3571 3564 3542 3564 3570 3538 3529 3569 3547 3554 3557 3547 3542 3519 3561 3538 3548 3535 3543 3554 3530 3545 3535 3563 3559 3514 3578 3533 3569 3550 3567 3569 3528 3528 3549 3545 3550 3569 3527 3523 3544 3524 3548 3559 3556 3548 3557 3559 3547 3542 3546 3551 3541 3551 3549 3548 3543 3562 3541 3548 3557 3568 3536 3550 3549 3549 3549 3546 3553 3556 3547 3554 3537 3550 3550 3544 3560 3542 3571 3564 3574 3563 3548 3567 3552 3558 3559 3557 3564 3548 3540 3564 3547 3579 3567 3566 3549 3559 3558 3547 3569 3556 3544 3564 3578 3564 3566 3575 3571 3543 3534 3555 3567 3561 3543 3547 3560 3570 3565 3564 3582 3548 3579 3530 3552 3589 3561 3566 3563 3540 3524 3580 3545 3565 3544 3540 3555 3613 3553 3585 3565 3567 3548 3543 3552 3577 3569 3602 3550 3564 3551 3600 3556 3597 3566 3589 3558 3559 3550 3592 3556 3603 3584 3620 3598 3600 3550 3560 3557 3581 3559 3558 3613 3576 3554 3569 3562 3593 3576 3580 3593 3570 3573 3570 3554 3569 3602 3552 3583 3577 3633 3571 3581 3627 3595 3585 3565 3546 3589 3552 3577 3594 3554 3597 3573 3588 3568 3619 3573 3603 3533 3585 3601 3595 3573 3592 3586 3614 3558 3575 3593 3585 3600 3611 3587 3596 3556 3601 3568 3552 3580 3574 3589 3552 3555 3573 3576 3591 3566 3594 3590 3587 3592 3598 3607 3608 3597 3572 3593 3599 3585 3588 3603 3619 3578 3577 3564 3535 3538 3576 3551 3589 3595 3571 3525 3536 3531 3539 3529 3543 3564 3557 3579 3567 3570 3544 3531 3550 3547 3525 3534 3567 3543 3569 3563 3547 3557 3536 3551 3550 3533 3531 3561 3550 3555 3556 3554 3557 3560 3537 3516 3565 3518 3544 3549 3584 3563 3573 3552 3585 3572 3614 3592 3577 3554 3542 3557 3521 3537 3570 3560 3549 3582 3551 3585 3600 3579 3590 3397 3558 3495 3553 3143 3358 3618 3172 3054 2805 3584 2817 3596 3348 3545 3563 3565 3527 2789 3515 3543 3556 3488 3504 3512 3507 3536 3509 3531 3534 3523 3515 3527 3539 3265 3334 3501 3458 3473 3471 3483 2648 3515 2737 3500 3441 3524 3505 3506 3533 3525 3540 3532 3496

Tree=0
num_leaves=31
num_cat=0
split_feature=0 2 8 1 6 4 7 28 14 13 28 8 26 19 1 5 29 47 28 8 3 22 44 30 8 43 28 22 43 8
split_gain=818579 198043 153821 223089 66048.6 43064.6 15669.4 15445.7 9619.55 9070.34 4889.37 3736.73 2687.06 2619.41 2242.2 2179.2 2091.21 1880.39 1617.6 1587.06 3920.44 1466.97 3741.91 1369.95 1326.67 3471.62 1186.32 1145.86 1037.83 711.532
threshold=1.0000000180025095e-35 0.3898194988616675 -0.36936304306858975 -0.53441353637791267 -0.53923952470543879 -0.0046439948053412861 1.9956335184590976 -2.0583786174597001 -0.53441350361235462 0.038104293220749763 -2.0583786174597001 -0.36668843087871372 0.0014000958623556403 1.0000000180025095e-35 1.8710997181988669 1.6898654913655051 2.832711113340145 -0.59342534840169481 -1.3974282635231288 -0.39125182328918467 -0.12376152368769239 1.6377618346474407 -0.67116317379767676 2.4975833902135371 1.6225774423432446 1.489902931695694 -2.0497170424381439 1.5290872413742618 -0.67116316685690858 -0.36668843087871372
decision_type=2 2 2 2 2 2 2 2 2 2 2 2 2 2 2 2 2 2 2 2 2 2 2 2 2 2 2 2 2 2
left_child=1 6 9 4 10 13 15 14 -7 12 -4 -3 16 17 -5 19 18 -6 -2 20 -1 -21 -23 -20 -9 -26 -10 -17 -11 -8
right_child=2 11 3 7 5 8 29 24 26 28 -12 -13 -14 -15 -16 27 -18 -19 23 21 -22 22 -24 -25 25 -27 -28 -29 -30 -31
leaf_value=-0.83016164720475816 -1.0822508197361538 -0.82975702952014907 -0.86487962921674943 -0.84320779769074505 -0.83013798038865927 -1.0787985518823104 -0.83229543587071697 -1.085292774204792 -0.8289963659757994 -1.0831461013195405 -1.0853582363467102 -1.0740758068438341 -1.0825666370323266 -1.0645833684074144 -1.079264745370152 -1.0621029478897377 -1.0637806841311226 -1.0853582363467102 -0.8311146977803634 -1.0840826192869453 -1.0824273396507942 -0.94860849343926823 -1.0847248175295314 -1.0835005416338777 -1.0695585982125189 -0.89867270001009514 -1.0853582363467102 -0.82977322012843857 -0.8428537643742271 -0.96041515539327971
leaf_weight=214.54047858715057 64.362143576145172 8216.5102562904358 270.32100301980972 809.20767787098885 27723.895827025175 2340.051510989666 621.3872407078743 20622.605985790491 527.964614123106 406.84676212072372 3602.9147826731205 159.54010134935379 107.46527609229088 120.33770480751991 114.87667444348335 90.302037805318832 97.323362559080124 72.358652323484421 45743.540697157383 204528.4595618844 545.90799960494041 711.88431531190872 1736.6076557636261 53.830156445503235 2354.4842340946198 340.14417695999146 49.344310075044632 128.72428715229034 50.514530867338181 131.25976553559303
leaf_count=1100 330 42128 1386 4149 142147 11998 3186 105737 2707 2086 18473 818 551 617 589 463 499 371 234538 1048666 2799 3650 8904 276 12072 1744 253 660 259 673
internal_value=-1.01728 -1.0728 -0.903007 -0.956649 -0.875359 -0.850912 -1.08237 -1.07304 -1.0337 -0.835038 -1.06997 -0.834411 -0.832839 -0.83181 -0.872553 -1.08319 -0.832255 -0.830802 -0.831763 -1.08336 -1.01126 -1.08362 -1.04515 -0.831411 -1.08098 -1.04799 -0.850908 -0.92556 -1.05661 -0.854639
internal_weight=322558 217085 105472 58948.5 34707.2 30834 208709 24241.3 2917.36 46523.9 3873.24 8376.05 46066.5 27916.6 924.084 207956 45959.1 27796.3 45861.7 207737 760.448 206977 2448.49 45797.4 23317.2 2694.63 577.309 219.026 457.361 752.647
internal_count=1653829 1113047 540782 302243 177952 158093 1070101 124291 14958 238539 19859 42946 236194 143135 4738 1066242 235643 142518 235144 1065119 3899 1061220 12554 234814 119553 13816 2960 1123 2345 3859
is_linear=0
shrinkage=1


Tree=1
num_leaves=31
num_cat=0
split_feature=0 2 8 1 6 4 10 28 28 13 28 8 19 26 10 3 14 5 51 44 1 29 47 8 3 1 8 43 30 43
split_gain=719318 174171 118350 188531 53114.8 33633 13971 13005 8585.6 7087.12 4488.44 2938.69 2226.12 2122.69 2041.81 3112.85 2359.56 2554.27 1887.44 1816.14 1785.94 1636.34 1503.21 1498.37 3390.96 1332.11 1303.2 3126.39 1221.68 909.515
threshold=1.0000000180025095e-35 0.3898194988616675 -0.36936304306858975 -0.53441353636527278 -0.53923952470543879 -0.0046439948053412861 1.9272665340159063 -2.0583786174597001 -2.0583786174597001 0.038104293220749763 -2.0583786174597001 -0.36668843087871372 1.0000000180025095e-35 0.0014000958623556403 1.4204285437489734 -0.12383913190338729 -0.53441350361282181 1.558373055510027 -0.063431418736807452 -0.67116317380171642 1.8710997181988669 2.832711113340145 -0.59342534840169481 -0.39125182328918467 -0.12376152368769239 1.8712394684538898 1.6225774423432446 1.489902931695694 2.4975833902135371 -0.67116316685690858
decision_type=2 2 2 2 2 2 2 2 2 2 2 2 2 2 2 2 2 2 2 2 2 2 2 2 2 2 2 2 2 2
left_child=1 6 9 4 10 12 14 20 18 13 -4 -3 22 21 23 -16 17 -17 -7 -18 -5 25 -6 24 -1 28 -9 -28 -2 -11
right_child=2 11 3 7 5 8 -8 26 -10 29 -12 -13 -14 -15 15 16 19 -19 -20 -21 -22 -23 -24 -25 -26 -27 27 -29 -30 -31
leaf_value=0.16360953760731906 0.1629070740655062 0.163936511527357 0.13577399247325772 0.15240250234692324 0.16350122646261489 0.16554955730507195 0.1424217161700462 -0.066824883297576493 -0.065395508254040752 -0.064643011004424003 -0.06689010187177595 -0.055486511359382845 -0.047486307640496959 -0.06405550272844579 0.15587053818351554 -0.059711594010407945 0.14268421904242976 0.15274731251210763 -0.062748821674384683 -0.063943623124129156 -0.060714418866351677 -0.045194995584274866 -0.066889050830139338 -0.065778798476203909 -0.065701596800665174 -0.046223304174083372 -0.050876791695103889 0.1086758776162057 -0.065220881884432563 0.15330213543381147
leaf_weight=232.57445693016052 49549.41156873107 8908.5938000679016 296.36353488266468 830.43458873033524 30100.178218379617 625.7078460752964 817.50346501171589 19920.6922262609 2183.680838868022 394.14361214637756 3495.5623895376921 155.25062981247902 126.18875706195831 104.13965441286564 208.28556713461876 4276.6672166883945 288.91965208947659 146.30729308724403 105.84820434451103 168.28419499099255 111.50317710638046 95.184459626674652 70.966444358229637 195599.59266676009 525.45942455530167 76.460620239377022 2284.8435055017471 354.68646436929703 58.756333336234093 54.486545071005821
leaf_count=1100 234465 42128 1421 3948 142373 2984 3909 105542 11533 2086 18520 818 661 551 1070 22524 1451 698 559 891 589 499 376 1035678 2780 368 12012 1725 311 259
internal_value=-0.00014276 -0.0542504 0.10302 0.0558968 0.126234 0.146475 -0.0638594 -0.0548506 -0.0157308 0.159668 -0.0510506 0.160178 0.162083 0.161447 -0.0646966 -0.0334265 -0.0415057 -0.0526837 0.132517 0.0666302 0.127174 0.161919 0.162959 -0.0655069 0.00465398 0.162315 -0.0624505 -0.0294369 0.162637 -0.0381734
internal_weight=322167 211327 110839 60506.7 37004.5 33212.6 202264 23502.2 2915.24 50332.6 3791.93 9063.84 30297.3 49884 201446 5088.46 4880.18 4422.97 731.556 457.204 941.938 49779.8 30171.1 196358 758.034 49684.6 22560.2 2639.53 49608.2 448.63
internal_count=1653829 1113047 540782 302243 178427 158486 1070101 123816 15076 238539 19941 42946 143410 236194 1066192 26634 25564 23222 3543 2342 4537 235643 142749 1039558 3880 235144 119279 13737 234776 2345
is_linear=0
shrinkage=0.05


Tree=2
num_leaves=31
num_cat=0
split_feature=0 2 8 1 6 4 7 28 28 13 28 8 10 3 14 5 19 47 37 44 1 8 3 28 8 43 47 29 26 43
split_gain=639893 155603 94487.4 162527 44125.6 27165.5 12617.8 11758.5 7629.37 5747.8 4044.4 2398.85 2013.77 2780.39 2160.11 2273.78 1811.03 1761.96 1561.5 1541.74 1483.21 1431.36 2955.22 1354.43 1272.19 2795.93 1231.33 1074.41 945.089 809.026
threshold=1.0000000180025095e-35 0.3898194988616675 -0.36936304306858975 -0.53441353636527278 -0.53923952470543879 -0.0046439948053412861 1.9956335184590976 -2.0583786174597001 -2.0583786174597001 0.038104293220749763 -2.0583786174597001 -0.36668843087871372 1.4204285437489734 -0.12383913190338729 -0.53441350361282181 1.558373055510027 1.0000000180025095e-35 1.4462087983916689 -0.53441350681066913 -0.67116317380171642 1.8710997181988669 -0.39125182328918467 -0.12376152368769239 -1.3974282635231288 1.6225774423432446 1.489902931695694 -0.59342534840169481 2.6928104856757553 0.0014000958623556403 -0.67116316685690858
decision_type=2 2 2 2 2 2 2 2 2 2 2 2 2 2 2 2 2 2 2 2 2 2 2 2 2 2 2 2 2 2
left_child=1 6 9 4 10 16 12 20 18 17 -4 -3 21 -14 15 -15 26 23 -7 -16 -5 22 -1 -2 -9 -26 -6 28 -25 -11
right_child=2 11 3 7 5 8 -8 24 -10 29 -12 -13 13 14 19 -17 -18 -19 -20 -21 -22 -23 -24 27 25 -27 -28 -29 -30 -31
leaf_value=0.14636167734807301 -0.065473176819091636 0.14664267505637771 0.12235451291874573 0.13672533888908642 0.14626864602187181 -0.063030366768199869 0.12930065895529944 -0.065730837952942031 -0.064265662897952214 -0.063507482448931646 -0.065797286306365291 -0.054237633323563253 0.13851906012951273 -0.058508693510274483 0.12743199441304784 0.13643578387523864 -0.046213097830791194 -0.071059037123102603 0.14765434623668022 -0.062806426563040155 -0.059518327767819602 -0.064663837293040038 -0.064582641892852663 0.14571539112725113 -0.049607376720507898 0.098747951736754158 -0.065796314114515933 -0.037425476007105711 -0.060492067379854686 0.13749345802605475
leaf_weight=246.58221304416656 76.389131024479866 9445.8701739311218 311.98369556665421 878.01741260290146 31912.267034009099 101.32970939576626 851.74178044497967 19256.485093921423 2112.767579048872 381.45354846119881 3378.8964389711618 150.99281349778175 227.47857645153999 4155.8540538698435 306.81757281720638 155.16202837228775 123.2572463452816 94.605930089950562 665.83630757033825 163.12405963242054 108.14227445423603 189186.29638771713 508.27139317989349 52544.954939097166 2227.6098582744598 370.39140164852142 68.597845554351807 80.396702602505684 55.624158143997192 57.624411553144455
leaf_count=1100 394 42128 1421 3948 142373 552 3859 105542 11533 2086 18520 818 1091 22550 1451 700 661 465 2991 892 589 1035678 2780 234601 12012 1725 376 430 304 259
internal_value=-0.000246909 -0.0530908 0.0942951 0.0520761 0.114533 0.13188 -0.0627255 -0.0536791 -0.0152266 0.14303 -0.0498931 0.143482 -0.0635645 -0.0322697 -0.0403958 -0.0514923 0.145077 0.144527 0.119826 0.0613973 0.115205 -0.0643897 0.00432491 0.144913 -0.0612998 -0.0284567 0.145814 0.145218 0.145497 -0.0371282
internal_weight=320205 205398 114807 61515.6 38674.9 34984.1 195801 22840.6 2879.93 53291 3690.88 9596.86 194950 5008.44 4780.96 4311.02 32104.1 52852 767.166 469.942 986.16 189941 754.854 52757.4 21854.5 2598 31980.9 52681 52600.6 439.078
internal_count=1653829 1113047 540782 302243 178427 158486 1070101 123816 15076 238539 19941 42946 1066242 26684 25593 23250 143410 236194 3543 2343 4537 1039558 3880 235729 119279 13737 142749 235335 234905 2345
is_linear=0
shrinkage=0.05


Tree=3
num_leaves=31
num_cat=0
split_feature=0 2 8 1 6 5 10 28 13 25 28 8 10 3 14 5 4 47 8 3 44 28 1 8 43 26 30 17 8 1
split_gain=574507 140549 77514.2 142180 37472.5 22603.3 11487.5 10715.1 4821.63 3894.77 3674.58 2010.91 1943.3 2393.83 1985.49 2056.4 1673.57 1671.5 1365.82 2612.29 1327.38 1267.61 1258.17 1242.77 2515.14 964.692 865.771 779.127 549.827 767.074
threshold=1.0000000180025095e-35 0.3898194988616675 -0.36936304306858975 -0.53441353636527278 -0.53923952470543879 -0.48790323858865986 1.9272665340159063 -2.0583786174597001 0.099543128108508849 0.058189610022898949 -2.0583786174597001 -0.36668843087871372 1.4204285437489734 -0.12383913190338729 -0.53441350361282181 1.558373055510027 -0.0046439948053412861 1.4462087983916689 -0.39125182328918467 -0.12376152368769239 -0.67116317380171642 -1.3974282635231288 1.8710997181988669 1.6225774423432446 1.489902931695694 0.0014000958623556403 2.4975833902135371 -0.0056503922797159125 -0.36668843087871372 1.8715357028945745
decision_type=2 2 2 2 2 2 2 2 2 2 2 2 2 2 2 2 2 2 2 2 2 2 2 2 2 2 2 2 2 2
left_child=1 6 8 4 10 9 12 22 17 -6 -4 -3 18 -14 15 -15 -11 21 19 -1 -16 -2 -5 -9 -25 26 -23 -20 -8 -30
right_child=2 11 3 7 5 -7 28 23 -10 16 -12 -13 13 14 20 -17 -18 -19 27 -21 -22 25 -24 24 -26 -27 -28 -29 29 -31
leaf_value=0.13314541367107632 -0.064312403574080843 0.13339793992215912 0.11162911055487033 0.12450275253874288 -0.065251804826812282 -0.05813059564724489 0.13466769108577906 -0.064723389101289303 -0.061851013667179544 0.13263155326621739 -0.064791331247399941 -0.053042607875917497 0.12427541970878529 -0.057340897776385784 0.1154217962002881 0.12472551344735561 0.067036189553764725 -0.06909135289623046 0.16668214110130264 -0.063546112773314276 -0.061728493907294707 0.13246158573928055 -0.058388406099665259 -0.048384114506677053 0.090500019767823695 -0.059058990456210374 -0.066487322559873857 -0.063677731086085612 -0.07473487890246612 0.14819393336870804
leaf_weight=257.20433443784714 82.324702069163322 9852.9938716888428 324.51056376099586 914.9606346487999 255.41809894144535 1687.4005774408579 742.55571374297142 18595.173299252987 324.79046057164669 33364.670559599996 3262.73413862288 146.7823398411274 234.94344455003738 4025.5113460868597 321.39679281413555 161.30654206871986 1001.5756235718727 103.79991216957569 36.713148355484009 491.16782784461975 157.59245216846466 54903.797841146588 104.80810588598251 2171.1766666173935 383.57565253973007 65.96563458442688 54.738453805446625 182768.06801940501 81.307249188423157 73.441973626613617
leaf_count=1100 441 42128 1421 3948 1429 9454 3211 105542 1826 142832 18520 818 1070 22524 1451 698 4771 533 208 2780 891 235089 589 12012 1725 371 279 1035470 368 330
internal_value=-0.000324855 -0.0520281 0.0873195 0.0489211 0.105334 0.120565 -0.0616761 -0.0525981 0.130233 0.129274 -0.0488319 0.130661 -0.0625259 -0.0314526 -0.0392942 -0.0503264 0.13072 0.131363 -0.0633555 0.00405383 0.0571375 0.131741 0.105706 -0.0602309 -0.0275318 0.132034 0.132263 -0.0636315 0.1168 0.0310642
internal_weight=316952 199351 117601 62066 39896.3 36309.1 189351 22169.7 55535.4 34621.7 3587.24 9999.78 188454 4900.75 4665.81 4186.82 34366.2 55210.6 183553 748.372 478.989 55106.8 1019.77 21149.9 2554.75 55024.5 54958.5 182805 897.305 154.749
internal_count=1653829 1113047 540782 302243 178427 158486 1070101 123816 238539 149032 19941 42946 1066192 26634 25564 23222 147603 236713 1039558 3880 2342 236180 4537 119279 13737 235739 235368 1035678 3909 698
is_linear=0
shrinkage=0.05


Tree=4
num_leaves=31
num_cat=0
split_feature=0 2 8 1 16 5 10 28 13 25 28 10 3 14 5 22 4 47 8 3 8 43 44 28 1 29 1 2 17 28
split_gain=519468 127976 64963.7 125731 32362.9 19245.2 10530.6 9821.72 4133.25 3349.42 2703.83 1892.21 2134.06 1830.49 1882.35 1734.54 1462.58 1437.37 1302.05 2333.87 1214.91 2272.92 1157.84 1087.39 1084.53 906.324 842.769 730.16 690.28 559.417
threshold=1.0000000180025095e-35 0.3898194988616675 -0.36936304306858975 -0.53441353636527278 -0.53923952700495092 -0.48790323858865986 1.9272665340159063 -2.0583786174597001 0.099543128108508849 0.058189610022898949 -2.0583786174597001 1.4204285437489734 -0.12383913190338729 -0.53441350361282181 1.3357487214119781 1.503363363536194 -0.0046439948053412861 1.4462087983916689 -0.39125182328918467 -0.12376152368769239 1.6225774423432446 1.489902931695694 -0.67116317380171642 -1.3974282635231288 1.8710997181988669 2.6928104856757553 1.8712394684538898 -0.28809213369548997 -0.0056503922797159125 -2.0583786174597001
decision_type=2 2 2 2 2 2 2 2 2 2 2 2 2 2 2 2 2 2 2 2 2 2 2 2 2 2 2 2 2 2
left_child=1 6 8 4 10 9 11 24 17 -6 -4 18 -13 14 -14 -3 -11 23 19 -1 -9 -22 -15 -2 -5 26 -25 -7 -20 -29
right_child=2 15 3 7 5 27 -8 20 -10 16 -12 12 13 22 -16 -17 -18 -19 28 -21 21 -23 -24 25 -26 -27 -28 29 -30 -31
leaf_value=0.12268757874347591 -0.063192799549046011 -0.052994421992390177 0.097706460191182426 0.11468610720426381 -0.064288576902951172 -0.063404646296235503 0.10774758050449527 -0.063793691002847319 -0.060826290400742902 0.12210029298266117 -0.063863200978364829 0.11334572885311978 -0.057131028596787238 0.10568501914938533 0.097542417090365346 0.12292805771838833 0.061620788984164933 -0.0678410437279197 0.14505472493609661 -0.062583307378310901 -0.047201900668683558 0.083515996336331291 -0.060726618619888623 0.122129192970154 -0.057317023852853026 -0.040690718977872763 -0.050593906231913011 0.13762270568152427 -0.062720256049441175 -0.063461764199902293
leaf_weight=264.95276987552643 79.6617112159729 142.07532027363777 282.57649365067482 942.83030372858047 247.35282634198666 1550.7340821325779 923.1068658977747 17939.480755805969 314.0224856287241 34410.54451020062 3095.7009478062391 244.45213635265827 3860.9795603603125 333.12941157817841 207.26074466109276 10150.216648608446 1029.5477765053511 100.51070423424244 39.983180046081543 474.21782582998276 2115.6982222795486 394.56669241189957 152.31676518917084 56523.687969893217 101.51268681883812 85.825977221131325 70.711599424481392 83.935281977057457 176440.73332239687 58.82942496240139
leaf_count=1100 441 769 1201 3948 1434 9021 3909 105542 1826 143035 18215 1070 22286 1451 936 42177 4799 533 208 2780 12012 1725 891 234988 589 442 309 380 1035470 342
internal_value=-0.000384374 -0.0510512 0.0815943 0.0462538 0.0978547 0.111248 -0.0607027 -0.0515968 0.120074 0.119064 -0.0503487 -0.061557 -0.0305744 -0.0383004 -0.049251 0.1205 0.120343 0.121073 -0.0623958 0.00382631 -0.0592349 -0.0266555 0.0534706 0.121408 0.097967 0.121667 0.121913 -0.0534431 -0.0626732 0.0547613
internal_weight=312661 193233 119428 62253.3 40759.2 37380.9 182941 21494.1 57174.4 35687.4 3378.28 182018 4798.14 4553.69 4068.24 10292.3 35440.1 56860.4 177220 739.171 20449.7 2510.26 485.446 56759.9 1044.34 56680.2 56594.4 1693.5 176481 142.765
internal_count=1653829 1113047 540782 302243 178427 159011 1070101 123816 238539 149268 19416 1066192 26634 25564 23222 42946 147834 236713 1039558 3880 119279 13737 2342 236180 4537 235739 235297 9743 1035678 722
is_linear=0
shrinkage=0.05


Tree=5
num_leaves=31
num_cat=0
split_feature=0 2 8 1 6 5 10 28 13 28 25 10 3 14 36 8 31 25 4 8 3 8 43 4 44 1 1 17 45 2
split_gain=472394 117231 55356.9 112179 28374.4 16854 9699.09 9590.27 3595.28 3000.94 2838.15 1842.02 1916.36 1691.31 1734.14 1538.01 1340.94 2390.91 1259.42 1240.28 2102.41 1181.99 2039.4 1084.09 1019.63 957.173 861.396 620.566 565.829 462.722
threshold=1.0000000180025095e-35 0.3898194988616675 -0.36936304306858975 -0.53441353637791267 -0.53923952470543879 -0.48790323858865986 1.9272665340159063 -2.0583786174597001 0.099543128108508849 -2.0583786174597001 0.058189610022898949 1.4204285437489734 -0.12383913190338729 -0.53441350361282181 2.5029186495970808 -0.36668843087871372 2.0034381722438384 1.2895382873268155 -0.0046439948053412861 -0.39125182328918467 -0.12376152368769239 1.6225774423432446 1.489902931695694 0.0023742869390901027 -0.67116317380171642 1.8710997181988669 1.8712394684538898 -0.0056503922797159125 0.23055783934235904 -0.10138908860027875
decision_type=2 2 2 2 2 2 2 2 2 2 2 2 2 2 2 2 2 2 2 2 2 2 2 2 2 2 2 2 2 2
left_child=1 6 8 4 9 10 11 25 16 -4 -6 19 -13 14 -14 -3 23 -18 -12 20 -1 -9 -23 26 -15 -5 28 -21 -2 -7
right_child=2 15 3 7 5 29 -8 21 -10 -11 18 12 13 24 -16 -17 17 -19 -20 27 -22 22 -24 -25 -26 -27 -28 -29 -30 -31
leaf_value=0.11420462155913387 0.11441846429238869 0.11446246310572106 0.095020225139380993 0.10715395032909412 -0.063372722396284789 -0.062817256597656732 0.10008466774746637 -0.062953277811720026 -0.059862818097128005 -0.063027643101484246 0.11388687123215646 0.10440437759335396 -0.055998593306028979 0.097606081500493269 0.092851006369284159 -0.051616572554262607 0.11015092195605242 -0.071400635466087756 0.057926764923984068 0.12882053509944419 -0.061686634693890741 -0.046146517019702307 0.076257241034442633 -0.046305425440953486 -0.059785093709297465 -0.056297479351252566 -0.050616294879888585 -0.061829258822838698 0.025382569097566244 0.055738379087014955
leaf_weight=270.25082409381866 56818.68032053113 10351.271365523338 333.40917631983757 1011.883830010891 231.44543246924877 1481.6699967384338 943.52410857379436 17330.807140693069 303.3926817625761 3028.5438933521509 35004.262291237712 251.90993425250053 3744.8204819709063 342.4096866697073 206.45943024754524 141.30476485192776 537.20169924199581 273.75721678137779 1035.1700334250927 42.693740844726562 457.47996240854263 2071.5831507891417 407.17970636487007 105.78026656806469 147.11190006136894 98.266136884689331 79.445619434118271 170192.62148147821 179.00322295725346 87.143656477332115
leaf_count=1100 231490 42128 1386 4149 1393 8938 3909 105737 1826 18473 142593 1070 22310 1451 912 818 2204 1306 4727 208 2780 12072 1744 569 891 589 368 1035470 776 442
internal_value=-0.000430751 -0.0501485 0.0768147 0.043974 0.0918508 0.104219 -0.0597959 -0.0503201 0.11181 -0.0473538 0.111159 -0.0606547 -0.02975 -0.03736 -0.048221 0.112226 0.112708 0.0488642 0.11228 -0.061503 0.00363252 -0.0583343 -0.0260396 0.113613 0.0503066 0.0926859 0.11391 -0.0617814 0.114139 -0.0562318
internal_weight=307510 187092 120419 62121.4 41201.6 37839.7 176599 20919.7 58297.3 3361.95 36270.9 175656 4692.71 4440.8 3951.28 10492.6 57993.9 810.959 36039.4 170963 727.731 19809.6 2478.76 57182.9 489.522 1110.15 57077.1 170235 56997.7 1568.81
internal_count=1653829 1113047 540782 302243 177952 158093 1070101 124291 238539 19859 148713 1066192 26634 25564 23222 42946 236713 3510 147320 1039558 3880 119553 13816 233203 2342 4738 232634 1035678 232266 9380
is_linear=0
shrinkage=0.05


Tree=6
num_leaves=31
num_cat=0
split_feature=0 2 8 1 16 5 7 28 13 25 28 22 36 14 30 22 8 3 26 4 8 43 31 25 44 6 1 2 17 29
split_gain=431621 107907 47815.9 100806 25025.2 14739.6 8971.8 8354.22 3163.98 2570.91 2295.92 1820.38 1630.58 1613.35 1774.44 1360.97 1184.26 1906.41 1184.2 1166.24 1164.3 1877.24 962.518 2053.68 907.423 838.544 758.709 644.768 564.315 543.808
threshold=1.0000000180025095e-35 0.3898194988616675 -0.36936304306858975 -0.53441353636527278 -0.53923952700495092 -0.48790323858865986 1.9956335184590976 -2.0583786174597001 0.099543128108508849 0.058189610022898949 -2.0583786174597001 1.5290872413742618 2.264602427469232 -0.53441350361282181 1.0000000180025095e-35 1.503363363536194 -0.39125182328918467 -0.12376152368769239 0.0014000958623556403 -0.0046439948053412861 1.6225774423432446 1.489902931695694 2.0034381722438384 1.2895382873268155 -0.67116317379951174 1.854248454260109 1.8712394684538898 -0.28873322601841461 -0.0056503922797159125 2.832711113340145
decision_type=2 2 2 2 2 2 2 2 2 2 2 2 2 2 2 2 2 2 2 2 2 2 2 2 2 2 2 2 2 2
left_child=1 6 8 4 10 9 11 25 18 -6 -4 16 13 14 -13 -3 17 -1 22 -11 -9 -22 26 -24 -15 -5 29 -7 -18 -2
right_child=2 15 3 7 5 27 -8 20 -10 19 -12 12 -14 24 -16 -17 28 -19 -20 -21 21 -23 23 -25 -26 -27 -28 -29 -30 -31
leaf_value=0.10718636590159746 0.10720284116284273 -0.051844575056248468 0.084602443479799366 0.099368422585041943 -0.062605764469258071 -0.061828497059544553 0.094535034286551911 -0.062137420563545355 -0.058954034857884467 0.10664910475940592 -0.062211771982248601 0.13073212701294018 0.11904969687397729 0.09007567272254316 -0.05045524183521656 0.10742876777460736 0.11612865200595479 -0.06084943699475464 -0.060505341952410696 0.053601029334271237 -0.044941090164902164 0.072351076583671334 0.10528437885260143 -0.070236020373135408 -0.058995717968031297 -0.06086902503391093 -0.048986224305044075 0.047254680090002832 -0.061097410655777652 -0.036587306059247142
leaf_weight=273.45577776432037 57651.488330051303 135.86184793710709 293.49050876498222 982.45787614583969 229.95494291186333 1437.9079312980175 946.82262963056564 16653.633144795895 292.9316808283329 35522.833540186286 2873.5899000167847 139.04666006565094 173.57589715719223 364.76077227294445 4794.621412396431 10475.019043117762 44.928943395614624 441.00332647562027 106.87192533910275 1067.1934725195169 2007.9902309775352 410.94606444239616 537.703891903162 241.50660279393196 141.75849738717079 89.046713873744011 78.02133147418499 149.55488404631615 163024.18273857236 65.829919040203094
leaf_count=1100 232064 769 1201 3996 1434 9000 3859 105542 1826 143035 18215 685 722 1516 29458 42177 208 2780 625 4799 12012 1725 2169 1151 888 541 368 743 1028885 336
internal_value=-0.000467374 -0.0493131 0.0727671 0.0420034 0.0864834 0.0976229 -0.0589497 -0.0497972 0.104962 0.104054 -0.0486066 -0.0598076 -0.0318109 -0.0366243 -0.0453488 0.105389 -0.0607672 0.00346546 0.105781 0.105102 -0.0574292 -0.0250147 0.106084 0.050884 0.0483554 0.086052 0.106828 -0.0515518 -0.0610486 0.107039
internal_weight=301648 180955 120693 61718.6 41574.5 38407.4 170344 20144.1 58974.4 36820 3167.08 169397 5613.76 5440.19 4933.67 10610.9 163784 714.459 58681.4 36590 19072.6 2418.94 58574.6 779.21 506.519 1071.5 57795.3 1587.46 163069 57717.3
internal_count=1653829 1113047 540782 302243 178427 159011 1070101 123816 238539 149268 19416 1066242 33269 32547 30143 42946 1032973 3880 236713 147834 119279 13737 236088 3320 2404 4537 232768 9743 1029093 232400
is_linear=0
shrinkage=0.05


Tree=7
num_leaves=31
num_cat=0
split_feature=0 2 8 1 6 5 7 28 13 28 25 22 36 3 14 8 8 43 8 3 47 4 28 1 29 30 1 26 24 8
split_gain=395907 99694.1 41779.7 91126.8 22345.6 13208.7 8320.1 8213.72 2810.86 2575.82 2220.9 1781.85 1476.9 1557.07 1644.21 1236.47 1134.45 1692.8 1126.83 1737.96 1055.14 1049.92 799.329 758.934 657.998 628.36 577.224 2194.97 497.163 424.444
threshold=1.0000000180025095e-35 0.3898194988616675 -0.36936304306858975 -0.53441353637791267 -0.53923952470543879 -0.48790323858865986 1.9956335184590976 -2.0583786174597001 0.099543128108508849 -2.0583786174597001 0.058189610022898949 1.5290872413742618 2.264602427469232 -0.12383913190338729 -0.53441350361282181 -0.36668843087871372 1.6225774423432446 1.489902931695694 -0.39125182328918467 -0.12376152368769239 1.4462087983916689 -0.0046439948053412861 -1.3974282635231288 1.8710997181988669 2.832711113340145 2.4975833902135371 1.8712723243152978 -0.0045932579629459199 1.5411698801964833 -0.36668843087871372
decision_type=2 2 2 2 2 2 2 2 2 2 2 2 2 2 2 2 2 2 2 2 2 2 2 2 2 2 2 2 2 2
left_child=1 6 8 4 9 10 11 23 20 -4 -6 18 13 28 -15 -3 -9 -18 19 -1 22 -12 -2 -5 25 -24 -20 -28 -13 -8
right_child=2 15 3 7 5 -7 29 16 -10 -11 21 12 -14 14 -16 -17 17 -19 26 -21 -22 -23 24 -25 -26 -27 27 -29 -30 -31
leaf_value=0.10128563863806113 -0.06219889650779669 0.10155388758653904 0.083710998412406146 0.094705303121808027 -0.061792268343486494 -0.054438865955354458 0.10399106143337807 -0.061423963029735289 -0.058094129340901995 -0.061526248483466862 0.10098019366004772 0.11790667227487013 0.11151960970501629 -0.051055931799632887 0.045176573301801817 -0.050328323624637267 -0.043954414644488182 0.066576289194622842 -0.06100980445035864 -0.060065807655065966 -0.066457469060442434 0.050663044020349685 0.10078866450567087 -0.054645005590919463 -0.041469824628228985 -0.067581145137370915 0.19780966457677251 -0.050355162362710031 -0.075446768778811679 0.015336949808464579
leaf_weight=274.87311512231827 75.651017025113106 10526.559645056725 342.48709425330162 1033.9578266739845 214.63040168583393 1466.3936757594347 793.46871489286423 16065.713540524244 282.66493226587772 2810.1638613939285 35614.90294778347 207.27942954003811 175.96257042884827 4566.7929451018572 491.65251341462135 135.72960335016251 1965.8614987432957 420.49563410878181 148294.06768272817 424.82897043228149 95.099311202764511 1067.8080339878798 58678.50792811811 92.686331227421761 81.579785287380219 55.466448187828064 90.026514679193497 8678.174430668354 39.596560433506966 162.6910009086132
leaf_count=1100 441 42128 1386 4149 1393 9380 3186 105737 1826 18473 142593 860 722 29151 2341 818 12072 1744 971715 2780 533 4727 235029 589 432 278 502 56876 195 673
internal_value=-0.000496517 -0.0485351 0.0692927 0.0402782 0.0822128 0.0927284 -0.0581556 -0.0486435 0.0992012 -0.0457485 0.0985772 -0.059017 -0.0309919 -0.0357186 -0.0417027 0.0996204 -0.0566458 -0.024478 -0.0599907 0.00331999 0.0999549 0.0995155 0.100224 0.0824186 0.100433 0.10063 -0.0602727 -0.0478072 0.0868946 0.0889065
internal_weight=295226 174862 120364 61095.1 41516.4 38363.7 164199 19578.7 59269 3152.65 36897.3 163243 5481.28 5305.32 5058.45 10662.3 18452.1 2386.36 157762 699.702 58986.3 36682.7 58891.2 1126.64 58815.6 58734 157062 8768.2 246.876 956.16
internal_count=1653829 1113047 540782 302243 177952 158093 1070101 124291 238539 19859 148713 1066242 33269 32547 31492 42946 119553 13816 1032973 3880 236713 147320 236180 4738 235739 235307 1029093 57378 1055 3859
is_linear=0
shrinkage=0.05


Tree=8
num_leaves=31
num_cat=0
split_feature=0 2 8 1 16 5 7 28 13 25 28 22 36 3 14 8 43 22 20 8 3 31 25 4 6 1 2 20 1 26
split_gain=364352 92397.3 36832.8 82782.2 20014.6 11717.1 7738.91 7188.79 2533.76 2048.12 1973.72 1744.8 1344.06 1424.78 1535.48 1119.17 1564.99 1112.05 1089.54 1071.71 1591.43 904.06 1748.64 761.882 675.622 673.642 608.927 598.79 579.39 1899.61
threshold=1.0000000180025095e-35 0.3898194988616675 -0.36936304306858975 -0.53441353636527278 -0.53923952700495092 -0.48790323858865986 1.9956335184590976 -2.0583786174597001 0.038104293220749763 0.058189610022898949 -2.0583786174597001 1.5290872413742618 2.264602427469232 -0.12383843852536355 -0.53441350361282181 1.6225774423432446 1.489902931695694 1.503363363536194 1.4883281737577339 -0.39125182328918467 -0.12376152368769239 2.0034381722438384 1.2895382873268155 0.0023742869390901027 1.854248454260109 1.8712394684538898 -0.28873322601841461 1.4883281737577339 1.8712723243152978 -0.0045932579629459199
decision_type=2 2 2 2 2 2 2 2 2 2 2 2 2 2 2 2 2 2 2 2 2 2 2 2 2 2 2 2 2 2
left_child=1 6 8 4 10 9 11 24 21 -6 -4 19 13 27 -15 -9 -17 -3 -11 20 -1 23 -23 25 -5 -2 -7 -13 -21 -30
right_child=2 17 3 7 5 26 -8 15 -10 18 -12 12 -14 14 -16 16 -18 -19 -20 28 -22 22 -24 -25 -26 -27 -28 -29 29 -31
leaf_value=0.096257575136617923 0.096237830203031449 -0.050787908016655163 0.074720469197344236 0.088709069950494199 -0.061161967678496992 -0.060409485999208902 0.084153838051014229 -0.060711301448857329 -0.033807308743967861 0.094721315887477647 -0.060791157450859182 0.11382892956483988 0.10521933824835004 -0.050437963069511475 0.042448749421652894 -0.042797608462231518 0.063665300738219313 0.096508460626896109 -0.075347181024649698 -0.060302616569058325 -0.059330547629375202 0.093495345306315425 -0.069682554378690156 -0.047633122633976406 -0.059530951852045072 -0.050278541614610053 0.045956779411774694 -0.068982633786839595 0.17161275826242972 -0.049424650214610968
leaf_weight=274.76630955934525 57944.016865551472 129.71806186437607 298.90517929196358 993.22325432300568 213.12681095302105 1338.2689924836159 959.53676427900791 15413.418949246407 383.63765789568424 36709.612676024437 2659.3085776716471 217.35737146437168 177.13808378577232 4403.0951282829046 494.92556680738926 1905.3502403497696 421.56158722937107 10523.898106247187 94.417133137583733 142673.87758815289 408.99053156375885 505.70237828791142 243.10399873554707 92.421133443713188 83.309257745742798 78.557073906064034 149.59514951705933 56.419575989246368 98.338323414325714 8406.4100139141083
leaf_count=1100 232073 769 1201 3996 1434 9000 3859 105542 2345 147381 18215 900 722 29011 2328 12012 1725 42177 453 971715 2780 2034 1210 509 541 368 743 308 502 56876
internal_value=-0.000520121 -0.0478119 0.0662762 0.0387592 0.0782316 0.0878603 -0.0574118 -0.0482188 0.0942729 0.09339 -0.0470987 -0.0582758 -0.030209 -0.0348476 -0.0410521 -0.0558318 -0.02351 0.094715 0.094285 -0.0592644 0.00319223 0.0951076 0.0405188 0.095811 0.0772373 0.0960395 -0.049715 0.0761554 -0.0595469 -0.0468688
internal_weight=288352 168824 119528 60280.1 41463.2 38505 158171 18816.9 59247.4 37017.2 2958.21 157211 5348.94 5171.8 4898.02 17740.3 2326.91 10653.6 36804 151862 683.757 58863.8 748.806 58115 1076.53 58022.6 1487.86 273.777 151179 8504.75
internal_count=1653829 1113047 540782 302243 178427 159011 1070101 123816 238539 149268 19416 1066242 33269 32547 31339 119279 13737 42946 147834 1032973 3880 236194 3244 232950 4537 232441 9743 1208 1029093 57378
is_linear=0
shrinkage=0.05


Tree=9
num_leaves=31
num_cat=0
split_feature=0 5 8 1 6 5 10 28 28 13 25 22 30 14 22 40 8 43 4 8 3 45 11 29 20 1 1 1 26 44
split_gain=336243 85854.4 32746 75515.9 18105 10532 7214.01 7102.55 2678.37 2311.49 1779.3 1664.3 1896.15 1595.64 1213.48 1190.89 1092.24 1415.56 1028.65 1018.46 1462.7 940.539 1952.51 775.843 685.885 618.285 608.237 581.223 1674.8 576.08
threshold=1.0000000180025095e-35 1.558373055510027 -0.36936304306858975 -0.53441353637791267 -0.53923952470538283 -0.48790323858865986 1.9272665340159063 -2.0583786174597001 -2.0583786174597001 0.099543128108508849 0.058189610022898949 1.5290872413742618 1.0000000180025095e-35 -0.53441350361282181 1.4948512924046538 0.86413771330350542 1.6225774423432446 1.489902931695694 -0.0046439948053412861 -0.39125182328918467 -0.12376152368769239 0.23055783934235904 -0.53441349434972951 2.832711113340145 1.4883281737577339 1.8710997181988669 1.8712394684538898 1.8712723243152978 -0.0045932579629459199 -0.67116317380171642
decision_type=2 2 2 2 2 2 2 2 2 2 2 2 2 2 2 2 2 2 2 2 2 2 2 2 2 2 2 2 2 2
left_child=1 6 9 4 8 10 11 25 -4 21 -6 19 24 15 -3 -14 -9 -18 -12 20 -1 23 -23 26 -13 -5 -2 -21 -29 -15
right_child=2 14 3 7 5 -7 -8 16 -10 -11 18 12 13 29 -16 -17 17 -19 -20 27 -22 22 -24 -25 -26 -27 -28 28 -30 -31
leaf_value=0.091924355419689074 0.091826343346339212 -0.043920613538186291 0.07734674590492957 0.085432438349034398 -0.060389607156758875 -0.052566289223455735 0.079117136729851434 -0.060103797252345104 -0.06057549030199183 -0.056816094657104313 0.09178602316751662 0.11367506716318086 -0.051475017703165808 0.079082638875018763 0.092703527585497852 0.11413318759582312 -0.041864910392509669 0.058885871194330322 0.042635630008020897 -0.059627544263675308 -0.058639016614241514 -0.077333747556923238 0.093508119468871942 -0.050921989397893344 -0.063078753242774885 -0.053150211606541257 -0.04865942737589056 0.15253074993011712 -0.048518367617611233 -0.06028693502341196
leaf_weight=273.36380630731583 57769.512916103005 165.09931920468807 406.09470042586327 1035.5673365145922 196.93655043840408 1352.7891275435686 971.38342179358006 14851.594866365194 2642.4445379376411 266.8052035421133 35355.735980689526 293.8117613941431 4296.8492722511292 364.92884489893913 10417.806423917413 111.36785507202148 1865.3931514769793 428.76941439509392 1097.5652499049902 137173.17652736604 393.51530909538269 255.00341704487801 485.94598069787025 95.593737199902534 67.492873758077621 87.266554936766624 77.148599430918694 104.92014548182487 8142.0079898834229 93.052163690328598
leaf_count=1100 232590 1077 1628 4149 1384 9284 3907 105737 18678 1826 142255 1269 28830 1477 41945 767 12072 1744 4723 971536 2780 1269 1961 525 409 589 368 502 56876 572
internal_value=-0.00053938 -0.047136 0.0636285 0.0374012 0.0750348 0.0844394 -0.0567059 -0.0471657 -0.0422029 0.0900204 0.0894964 -0.0575778 -0.0298571 -0.0380626 0.0905721 -0.0472911 -0.0551439 -0.023035 0.0903062 -0.0585698 0.00307918 0.090688 0.0347116 0.0914038 0.0806569 0.0746618 0.091639 -0.0588525 -0.0459606 0.0507657
internal_weight=281139 162869 118270 59320.2 41051.6 38003 152286 18268.6 3048.54 58950 36650.2 151314 5227.5 4866.2 10582.9 4408.22 17145.8 2294.16 36453.3 146087 666.879 58683.2 740.949 57942.3 361.305 1122.83 57846.7 145420 8246.93 457.981
internal_count=1653829 1113047 540782 302243 177952 157646 1070025 124291 20306 238539 148362 1066118 33324 31646 43022 29597 119553 13816 146978 1032794 3880 236713 3230 233483 1678 4738 232958 1028914 57378 2049
is_linear=0
shrinkage=0.05


Tree=10
num_leaves=31
num_cat=0
split_feature=0 2 8 1 6 5 7 28 28 13 22 4 28 3 36 14 8 43 8 3 8 26 19 25 1 1 26 1 1 24
split_gain=311087 79944.8 29302.1 69140.6 16407.3 9542.49 6736.04 6620.3 2493.91 2094.13 1677.16 1617.8 3354.79 1177.59 1240.84 1339.41 1072.77 1297.03 968.417 1348.64 932.459 872.239 806.081 689.545 2688.19 586.393 1495.42 558.767 554.68 521.443
threshold=1.0000000180025095e-35 0.3898194988616675 -0.36936304306858975 -0.53441353637791267 -0.53923952470538283 -0.48790323858865986 1.9956335184590976 -2.0583786174597001 -2.0583786174597001 0.099543128108508849 1.5290872413742618 -0.0046439948053412861 -2.0583786174597001 -0.12383843852536355 2.264602427469232 -0.53441350361282181 1.6225774423432446 1.489902931695694 -0.39125182328918467 -0.12376152368769239 -0.36668843087871372 0.0014000958623556403 1.0000000180025095e-35 1.3172358253446206 -0.53441353641456002 1.8712723243152978 -0.0045932579629459199 1.8710997181988669 1.8712394684538898 1.5411698801964833
decision_type=2 2 2 2 2 2 2 2 2 2 2 2 2 2 2 2 2 2 2 2 2 2 2 2 2 2 2 2 2 2
left_child=1 6 9 4 8 11 10 27 -4 21 18 22 -13 29 15 -15 -9 -18 19 -1 -3 23 -6 28 -25 -20 -27 -5 -2 -12
right_child=2 20 3 7 5 -7 -8 16 -10 -11 13 12 -14 14 -16 -17 17 -19 25 -21 -22 -23 -24 24 -26 26 -28 -29 -30 -31
leaf_value=0.088153555352474419 0.08829340299496119 0.088446947691193767 0.073504450559299633 0.081569764919589838 0.08817077394211946 -0.051702337626813547 0.076035324497243484 -0.059506211252523436 -0.059966254816536224 -0.056060011144047218 0.10606547248610494 0.1025055230109238 -0.063349569797201563 -0.048700817286348175 0.096046813084046598 0.038139277476433399 -0.04085269918863918 0.055579841206656093 -0.059024082411741202 -0.057987053567029267 -0.048189914882686008 -0.059614600134251718 -0.048728360381686431 0.089146599428572962 -0.068786970247604218 0.13795020222954199 -0.04763332554898736 -0.052295162155759613 -0.047112856623900766 -0.068951944838116827
leaf_weight=270.86449712514877 56407.69425535202 10368.854217007756 405.95472331345081 1030.4921486079693 34992.841266155243 1307.7710239589214 958.89004273712635 14265.540233686566 2538.4589176923037 257.12909060716629 220.41388185322285 693.46029105782509 544.12980674207211 4140.1478922963142 175.5236281901598 497.37305976450443 1817.2656088471413 431.48493519425392 131825.46873858571 378.42513412237167 126.38501471281052 101.34085336327553 107.85831984877586 1231.0418227165937 344.92561867833138 110.06345468759537 7885.1768481135368 84.333390429615974 75.733426585793495 52.741932436823845
leaf_count=1100 229028 42128 1628 4149 142059 9284 3859 105737 18678 1826 909 2800 2894 29011 719 2328 12072 1744 971715 2780 818 625 609 4997 1695 502 56876 589 368 302
internal_value=-0.000555011 -0.0465033 0.0612979 0.0361941 0.0721033 0.0809936 -0.0560523 -0.0464856 -0.0415643 0.0863164 -0.0569225 0.0857691 0.0295842 -0.0287167 -0.0344482 -0.0393872 -0.0544466 -0.0223495 -0.0579437 0.0029785 0.0868015 0.0869459 0.0877501 0.0872017 0.0545803 -0.0582266 -0.0450786 0.0714433 0.0881118 0.0722725
internal_weight=273648 157010 116637 58219.6 40590.5 37646.1 146515 17629.1 2944.41 58417.9 145556 36338.3 1237.59 5086.2 4813.04 4637.52 16514.3 2248.75 140470 649.29 10495.2 58160.7 35100.7 58059.4 1575.97 139821 7995.24 1114.83 56483.4 273.156
internal_count=1653829 1113047 540782 302243 177952 157646 1070101 124291 20306 238539 1066242 148362 5694 33269 32058 31339 119553 13816 1032973 3880 42946 236713 142668 236088 6692 1029093 57378 4738 229396 1211
is_linear=0
shrinkage=0.05


Tree=11
num_leaves=31
num_cat=0
split_feature=0 5 8 1 6 42 10 28 28 13 25 22 30 14 40 8 8 22 8 3 4 45 11 1 29 20 1 26 30 44
split_gain=288464 74601.4 26371 63527.2 14941.6 8709.55 6298.7 6179.67 2326.31 1906.32 1855.07 1597.88 1628.79 1391.49 1100.95 1054.65 2105.63 1002.09 919.725 1246.86 854.418 796.247 1683.2 739.6 640.541 605.839 589.836 1347.39 561.252 516.75
threshold=1.0000000180025095e-35 1.558373055510027 -0.36936304306858975 -0.53441353637791267 -0.53923952470538283 -0.062346226951781526 1.9272665340159063 -2.0583786174597001 -2.0583786174597001 0.099543128108508849 0.058189610022898949 1.5290872413742618 1.0000000180025095e-35 -0.53441350361282181 0.86413771330350542 2.4739341707827598 2.6354868955850441 1.4948512924046538 -0.39125182328918467 -0.12376152368769239 -0.0046439948053412861 0.23055783934235904 -0.53441349434972951 1.8712300128153394 2.832711113340145 1.4883281737577339 1.8712723243152978 -0.0045932579629459199 2.4975833902135371 -0.67116317380171642
decision_type=2 2 2 2 2 2 2 2 2 2 2 2 2 2 2 2 2 2 2 2 2 2 2 2 2 2 2 2 2 2
left_child=1 6 9 4 8 10 11 -5 -4 21 -6 18 25 14 -14 -9 23 -3 19 -1 -12 24 -23 -17 28 -13 -20 -28 -2 -15
right_child=2 17 3 7 5 -7 -8 15 -10 -11 20 12 13 29 -16 16 -18 -19 26 -21 -22 22 -24 -25 -26 -27 27 -29 -30 -31
leaf_value=0.084844475806765476 0.084707453457507451 -0.042125776606431652 0.070049617234258982 0.068566945990713432 -0.059134376574085268 -0.056513770971582583 0.071885840427351952 -0.058343110995759333 -0.059397882631822822 -0.055336620145297971 0.084656272406172461 0.10565375770689188 -0.04991752147494577 0.07260650221210295 0.10628247519758074 -0.06099773138035678 -0.044140444065541663 0.085608388706618396 -0.058429316173592552 -0.057370955921099476 0.040574769276150842 -0.075282296111065891 0.086089727976196392 0.12857949519407019 -0.048574024027555153 -0.062405164516886991 0.12641137027312152 -0.046766857571043964 -0.069281158080496688 -0.05997667928077232
leaf_weight=267.44190007448196 56562.286132916808 155.89282587170601 404.70554555952549 1103.6872453391552 230.20940512418747 1165.8174881637096 964.89582489430904 14127.416791766882 2437.1754969954491 247.70512488484383 34621.021571174264 290.21086879074574 4033.5113951861858 367.95702564716339 116.05524423718452 63.016048610210419 1428.2505430728197 10189.60501305759 126603.32196171582 363.73674243688583 1135.2996492683887 244.23601466417313 477.54787504673004 280.24462008476257 90.508985802531242 65.781038179993629 113.99390858411789 7636.0615142583847 59.234538182616234 91.834864377975464
leaf_count=1100 232650 1077 1628 4738 1740 8674 3907 108402 18678 1826 142315 1269 28830 1477 767 429 9258 41945 971536 2780 4917 1269 1961 1464 525 409 502 56876 308 572
internal_value=-0.000567685 -0.04591 0.0592386 0.0351182 0.069536 0.0779884 -0.0554243 -0.0458409 -0.0409636 0.0830728 0.0823458 -0.0563021 -0.0284458 -0.0364042 -0.0455489 -0.0537829 -0.0174166 0.0836836 -0.0573268 0.00288832 0.0832566 0.0836697 0.0314849 0.0937768 0.0843339 0.0745994 -0.0576096 -0.0442196 0.0845464 0.0461255
internal_weight=265939 151260 114678 56996.8 39994.2 37152.3 140915 17002.6 2841.88 57681.5 35986.5 139950 4965.35 4609.36 4149.57 15898.9 1771.51 10345.5 134985 631.179 35756.3 57433.8 721.784 343.261 56712 355.992 134353 7750.06 56621.5 459.792
internal_count=1653829 1113047 540782 302243 177952 157646 1070025 124291 20306 238539 148972 1066118 33324 31646 29597 119553 11151 43022 1032794 3880 147232 236713 3230 1893 233483 1678 1028914 57378 232958 2049
is_linear=0
shrinkage=0.05


Tree=12
num_leaves=31
num_cat=0
split_feature=0 5 8 1 16 4 7 28 28 13 22 3 44 47 28 42 8 43 20 47 22 8 3 19 26 37 63 1 26 31
split_gain=267935 69700.1 23874.7 58507.5 13657.9 7933.23 5900.44 5425.88 4787.87 1742.02 1580.91 1626.4 2617.93 1566.69 1480.2 1307.91 1056.3 1157.11 942.537 933.612 916.997 876.609 1154.87 775.671 753.276 668.66 643.667 608.344 1222.17 592.127
threshold=1.0000000180025095e-35 1.558373055510027 -0.36936304306858975 -0.53441353636527278 -0.53923952700495092 -0.0046439948053412861 1.9956335184590976 -2.0583786174597001 -2.0583786174597001 0.099543128108508849 1.519151813299213 -0.12383200831478851 -0.67116317379951174 3.8727825126623352 -2.0583786174597001 0.1089056281407675 1.6225774423432446 1.489902931695694 1.4883281737577339 -0.59377397401434218 1.4948512924046538 -0.39125182328918467 -0.12376152368769239 1.0000000180025095e-35 0.0014000958623556403 -0.53441350681066913 1.4680581667438821 1.8712723243152978 -0.0045932579629459199 2.0034381722438384
decision_type=2 2 2 2 2 2 2 2 2 2 2 2 2 2 2 2 2 2 2 2 2 2 2 2 2 2 2 2 2 2
left_child=1 6 9 4 14 19 10 -5 25 24 21 12 18 26 -4 -15 -9 -18 -12 23 -3 22 -1 -6 29 -7 -13 -23 -29 -2
right_child=2 20 3 7 5 8 -8 16 -10 -11 11 13 -14 15 -16 -17 17 -19 -20 -21 -22 27 -24 -25 -26 -27 -28 28 -30 -31
leaf_value=0.081918261255389424 0.081589889453132419 -0.041089065831096325 0.06002183269423559 0.064486020458718082 0.081978638743065935 -0.05691794561084057 0.069502080186287465 -0.058404347721419517 -0.060082845261268475 -0.054642411314991916 0.085184648128203422 -0.054907389770738516 -0.05824137098773835 -0.05232203040422076 -0.058484033784093753 0.21973623465604436 -0.038910556819127751 0.052848196878688886 -0.062721556815925519 -0.05776830203122936 0.082673276897064996 -0.058047786089447245 -0.05678734547588974 -0.071125921706429202 -0.058708207683656324 0.099534897270684902 0.14346213928715226 0.11703036255302075 -0.045916576277300752 0.036589380250217199
leaf_weight=263.00828568637371 55712.009536355734 151.93634806573391 298.29832917451859 1048.9176691621542 34134.238921090961 74.894281834363937 947.50252236425877 13110.809270322323 1667.1031851917505 238.54212263226509 825.31825645267963 4235.8214785009623 768.95212823152542 79.893988430500031 2258.7666725739837 98.81735335290432 1721.885181799531 429.21752206981182 123.87999807298183 120.57540363818407 10027.838648706675 120208.40700252354 349.46281015872955 82.926834926009178 96.648902736604214 774.85932242870331 41.291840553283691 116.89342853426933 7394.751825273037 740.72344417870045
leaf_count=1099 232768 1077 1201 4537 142533 553 3859 105542 11701 1826 3907 31887 5692 602 18215 659 12012 1725 854 596 41945 961105 2780 496 625 3132 203 502 56876 3320
internal_value=-0.000578269 -0.0453516 0.0573764 0.0341247 0.0670846 0.0748377 -0.0548342 -0.045516 -0.0108475 0.0801919 -0.0557101 -0.0309964 0.0103307 -0.046932 -0.0446596 0.0981109 -0.0530762 -0.0206016 0.0658814 0.0811182 0.0808261 -0.056899 0.00277583 0.0816076 0.0807607 0.0857457 -0.0529923 -0.0571852 -0.0433809 0.0809994
internal_weight=258144 145634 112510 55722.5 39411.7 36854.6 135454 16310.8 2516.86 56787.9 134506 6173.98 1718.15 4455.82 2557.07 178.711 15261.9 2151.1 949.198 34337.7 10179.8 128333 612.471 34217.2 56549.4 849.754 4277.11 127720 7511.65 56452.7
internal_count=1653829 1113047 540782 302243 178427 159011 1070025 123816 15386 238539 1066166 43804 10453 33351 19416 1261 119279 13737 4761 143625 43022 1022362 3879 143029 236713 3685 32090 1018483 57378 236088
is_linear=0
shrinkage=0.05


Tree=13
num_leaves=31
num_cat=0
split_feature=0 5 8 1 6 42 7 28 28 13 19 22 3 44 47 8 8 1 42 4 20 22 8 3 47 1 26 63 1 1
split_gain=249303 65211.7 21664.5 54055.1 12578.6 7212.12 5531.77 5386.87 2615.88 1603.38 1552.93 1549.79 1527.01 2398.59 1415.3 1033.45 1075.5 1230.73 1003.98 844.487 844.312 842.366 832.713 1072.44 642.223 614.732 1114.23 586.577 530.567 522.61
threshold=1.0000000180025095e-35 1.558373055510027 -0.36936304306858975 -0.53441353637791267 -0.53923952470519021 -0.062346226951781526 1.9956335184590976 -2.0583786174597001 -2.0583786174597001 0.038104293220749763 1.0000000180025095e-35 1.519151813299213 -0.12383200831478851 -0.67116317379951174 3.8727825126623352 1.6225774423432446 2.7001694708436559 1.8712300128153394 0.1089056281407675 -0.0046439948053412861 1.4883281737577339 1.4948512924046538 -0.39125182328918467 -0.12376152368769239 1.4462087983916689 1.8712723243152978 -0.0045932579629459199 1.4680581667438821 1.8712394684538898 1.8710997181988669
decision_type=2 2 2 2 2 2 2 2 2 2 2 2 2 2 2 2 2 2 2 2 2 2 2 2 2 2 2 2 2 2
left_child=1 6 9 4 8 10 11 29 -4 24 19 22 13 20 27 -9 17 -17 -16 -6 -13 -3 23 -1 28 -24 -27 -14 -2 -5
right_child=2 21 3 7 5 -7 -8 15 -10 -11 -12 12 14 -15 18 16 -18 -19 -20 -21 -22 -23 25 -25 -26 26 -28 -29 -30 -31
leaf_value=0.079315259607625407 0.078643582186882027 -0.040070536758038844 0.067026324827467718 0.072959579092392521 0.079478914857518443 -0.055181452933994568 0.066659568471587674 -0.057951903016205009 -0.059355204771026675 -0.030991917852215518 -0.043793341753961018 0.080304219633504315 -0.054195367162543986 -0.057627444269597629 -0.051564483960439583 -0.060279823591292449 -0.053641756656720163 0.057451927940541936 0.1826776946284695 0.035314527813328132 -0.061929426723502594 0.080066401257862449 -0.057540516305531711 -0.056233208275531812 -0.066402607481045026 0.10923864790830198 -0.045080361406324994 0.13297665831517055 -0.050937445267285511 -0.053600263901459583
leaf_weight=258.17931814491749 55284.695031151175 148.10672292113304 498.04258468747139 1001.605457752943 33288.226947970688 1061.681738756597 938.7302807867527 12608.599101163447 2301.5115711390972 337.88752669095993 263.5440583974123 831.52884182333946 4080.835069462657 739.04465869069099 77.085772253572941 335.03807483613491 1127.400790989399 657.82094477117062 112.5094957947731 1118.7803261131048 119.30726631730795 9841.309536844492 115328.26297278702 335.61207801103592 76.616719380021095 118.91252809762955 7161.2842244505882 42.292286172509193 79.107615411281586 88.800966009497643
leaf_count=1099 235361 1077 2049 4149 141579 8575 3859 105737 18955 2345 1782 3907 31887 5692 602 2417 7746 3653 659 5012 854 41945 961105 2780 465 502 56876 203 368 589
internal_value=-0.000587531 -0.0448278 0.0557055 0.0332398 0.0651896 0.0731859 -0.0542775 -0.044582 -0.0368718 0.0775964 0.0771167 -0.0551562 -0.0303473 0.00993998 -0.0461334 -0.0525208 -0.0202233 0.0177236 0.0874394 0.0780429 0.0624573 0.0782852 -0.0563649 0.002703 0.0782582 -0.056651 -0.0425598 -0.0522755 0.0784584 0.0626527
internal_weight=250262 140133 110129 54351.1 38531.8 35732.2 130144 15819.3 2799.55 55778.3 34670.6 129205 6002.6 1689.88 4312.72 14728.9 2120.26 992.859 189.595 34407 950.836 9989.42 123202 593.791 55440.4 122608 7280.2 4123.13 55363.8 1090.41
internal_count=1653829 1113047 540782 302243 177952 156948 1070025 124291 21004 238539 148373 1066166 43804 10453 33351 119553 13816 6070 1261 146591 4761 43022 1022362 3879 236194 1018483 57378 32090 235729 4738
is_linear=0
shrinkage=0.05


Tree=14
num_leaves=31
num_cat=0
split_feature=0 2 8 1 6 42 7 28 28 22 13 25 8 8 1 3 36 14 8 16 4 25 1 22 1 26 30 1 1 43
split_gain=232281 61093 19745.1 50013.6 11559.2 6632.95 5192.32 5043.34 2447.69 1541.06 1498.5 1472.91 1026.96 1819.78 946.008 937.129 919.462 1050.21 788.563 1002.47 758.937 723.643 2456.23 657.421 609.709 1019.82 517.848 496.118 478.603 476.118
threshold=1.0000000180025095e-35 0.3898194988616675 -0.36936304306858975 -0.53441353637791267 -0.53923952470519021 -0.062346226951781526 1.9956335184590976 -2.0583786174597001 -2.0583786174597001 1.5290872413742618 0.099543128108508849 0.058189610022898949 2.4739341707827598 2.6687504632798245 1.8712300128153394 -0.12383843852536355 2.0607533634750088 -0.53441350361282181 -0.39125182328918467 -0.53923952618327287 -0.0046439948053412861 1.3172358253446206 -0.53441353641456002 1.503363363536194 1.8712723243152978 -0.0045932579629459199 1.0000000180025095e-35 1.8712394684538898 1.8710997181988669 1.4901792262575027
decision_type=2 2 2 2 2 2 2 2 2 2 2 2 2 2 2 2 2 2 2 2 2 2 2 2 2 2 2 2 2 2
left_child=1 6 10 4 8 11 9 28 -4 18 21 -6 -9 14 -14 -11 17 -17 19 -1 -13 26 -23 -3 -20 -26 27 -2 -5 -15
right_child=2 23 3 7 5 -7 -8 12 -10 15 -12 20 13 29 -16 16 -18 -19 24 -21 -22 22 -24 -25 25 -27 -28 -29 -30 -31
leaf_value=-0.054044878097064743 0.077145407295833412 -0.045258891765571546 0.064400409136323791 0.070367393826449243 -0.057914096940417575 -0.05458199403071276 0.064052143315669982 -0.056846714096837517 -0.058871233107664456 0.065183756645690358 -0.053602070053542727 0.076987509951151889 -0.059412125439724364 -0.056983202413481739 0.10267506102059949 -0.04563906817950486 0.081971609578196089 0.032692435663235257 -0.056908546931230208 0.079484726090598132 0.035290997685280524 0.077991382846946358 -0.069547809104628336 0.077334012599811403 0.10265289272400985 -0.044256308373928112 -0.053290934590952715 -0.049287450479791793 -0.05273028017781875 0.081664269663425354
leaf_weight=330.91651900112629 52758.454883031547 110.60826434195042 492.57068951427937 986.94732901453972 207.85878617316484 1020.7137969061732 928.35850049555302 12496.970501773059 2206.8064792081714 264.67600148916245 224.67378187924623 32648.266625627875 117.63977724313736 1106.6713123321533 383.41333661973476 3646.9412785843015 170.688805796206 484.78179322183132 111851.78944316506 244.34531851112843 1129.0447121411562 1151.0283897817135 373.67367958277464 9679.1983055621386 120.17796939611435 6935.6574405133724 76.420896783471107 77.704105883836746 85.828419834375381 65.589804023504257
leaf_count=2809 229059 769 2049 4149 1736 8575 3859 108402 18955 1211 1826 141735 886 8012 1988 28986 744 2328 971715 1071 4902 4997 1940 42177 502 56876 349 368 589 265
internal_value=-0.000595169 -0.0443336 0.0541816 0.0324201 0.0633176 0.0710053 -0.0537556 -0.044008 -0.0363772 -0.0546372 0.0752609 0.0747772 -0.0519213 -0.0151362 0.0646194 -0.0261326 -0.0317503 -0.0364483 -0.0557268 0.00267248 0.0755938 0.0757928 0.0418325 0.0759489 -0.0560093 -0.0417541 0.0767713 0.0769595 0.0605189 -0.0492257
internal_weight=242378 134768 107610 52948.3 37705.3 35005.9 124978 15243.1 2699.38 124050 54662 33985.2 14170.3 1673.31 501.053 4567.09 4302.41 4131.72 119483 575.262 33777.3 54437.3 1524.7 9789.81 118908 7055.84 52912.6 52836.2 1072.78 1172.26
internal_count=1653829 1113047 540782 302243 177952 156948 1070101 124291 21004 1066242 238539 148373 119553 11151 2874 33269 32058 31314 1032973 3880 146637 236713 6937 42946 1029093 57378 229776 229427 4738 8277
is_linear=0
shrinkage=0.05


Tree=15
num_leaves=31
num_cat=0
split_feature=0 5 8 1 16 4 10 28 28 28 22 13 15 44 47 8 1 6 47 20 8 3 22 1 26 22 25 1 51 63
split_gain=216728 57300.9 18086.3 46363.8 10661.7 6051.3 4878.87 4726.85 4094.95 2438.03 1492.66 1386.87 1365.01 2279.47 1391.43 1009.94 969.819 1993.92 806.595 759.05 752.121 932.664 707.175 629.61 936.282 596.489 584.336 2147.19 529.143 519.147
threshold=1.0000000180025095e-35 1.558373055510027 -0.36936304306858975 -0.53441353637791267 -0.53923952700459277 -0.0046439948053412861 1.9272665340159063 -2.0583786174597001 -2.0583786174597001 -2.0583786174597001 1.519151813299213 0.028744929449770699 -0.15050880869412975 -0.67116317380289015 3.8727825126623352 1.6225774423432446 1.8712300128153394 1.8543938819156462 3.9485388582906058 1.4883281737577339 -0.39125182328918467 -0.12376152368769239 1.4948512924046538 1.8712723243152978 -0.0045932579629459199 1.0657860680354132 1.3172358253446206 -0.53441353641456002 -0.027066802166360992 1.4680581667438821
decision_type=2 2 2 2 2 2 2 2 2 2 2 2 2 2 2 2 2 2 2 2 2 2 2 2 2 2 2 2 2 2
left_child=1 6 11 4 9 25 10 -5 28 -4 20 26 13 19 29 -9 -17 -18 -16 -12 21 -1 -3 -22 -25 -6 -2 -28 -7 -14
right_child=2 22 3 7 5 8 -8 15 -10 -11 12 -13 14 -15 18 16 17 -19 -20 -21 23 -23 -24 24 -26 -27 27 -29 -30 -31
leaf_value=0.074989688286441411 0.074751364010182925 -0.03774541884665232 0.062282617963907008 0.058561341544482809 0.075017181703905242 0.09220482931846502 0.061033375174802687 -0.057070133074533992 -0.059194960894665055 -0.058882633269536022 0.079267755889905131 -0.023133806313513978 -0.05360839888903747 -0.054246765742987479 0.16066144291919982 -0.059351177579206826 0.070738222227013203 -0.059657070881440968 -0.058780807085092118 -0.061591175430446059 -0.056614741838825922 -0.055226146843429913 0.075661134463048452 0.097004695657450901 -0.043442739801657686 -0.090013472784927995 0.07587907828759817 -0.067962057775604434 -0.056375111425580486 0.12361391534876215
leaf_weight=247.27221739292145 51593.232076890767 139.50190664827824 516.05099342763424 1053.6164277940989 31841.036644287407 752.01754878461361 926.83052816987038 11587.067352436483 1473.2868120148778 2123.7118043377995 799.64793214201927 371.05751424282789 3745.9956938549876 776.68991565704346 125.67125277221203 857.76139990240335 634.83575271070004 544.73910753428936 62.80098944157362 108.63338797539473 106027.4051746428 309.78771030902863 9412.1472436189651 120.79781460762024 6717.8307925760746 54.84799861907959 1124.5854760408401 337.24802601337433 65.111123807728291 41.784056693315506
leaf_count=1099 229207 1077 2189 4738 141659 3069 3907 105737 11299 18965 3781 2567 31444 6320 702 6639 3142 4035 522 810 961082 2780 41945 502 56876 231 4997 1768 540 200
internal_value=-0.000600876 -0.0438595 0.0528128 0.0316706 0.0616204 0.0690963 -0.0532403 -0.0434714 -0.00940535 -0.0351959 -0.0541297 0.0731944 -0.0290733 0.00864259 -0.0450557 -0.0513619 -0.018897 0.0105204 0.0875409 0.0624206 -0.0553803 0.0025751 0.0740048 -0.0556663 -0.0409619 0.0747334 0.0738681 0.0426946 0.0803656 -0.0516534
internal_weight=234493 129563 104930 51504.1 36826.1 34186.3 120011 14678 2290.42 2639.76 119084 53426.1 5661.22 1684.97 3976.25 13624.4 2037.34 1179.57 188.472 908.281 113423 557.06 9551.65 112866 6838.63 31895.9 53055.1 1461.83 817.129 3787.78
internal_count=1653829 1113047 540782 302243 177952 156798 1070025 124291 14908 21154 1066118 238539 43779 10911 32868 119553 13816 7177 1224 4591 1022339 3879 43022 1018460 57378 141890 235972 6765 3609 31644
is_linear=0
shrinkage=0.05


Tree=16
num_leaves=31
num_cat=0
split_feature=0 5 8 3 6 72 28 10 28 22 13 30 4 28 14 3 8 1 6 8 16 26 22 1 1 25 1 47 1 20
split_gain=202474 53778.2 16592 43082.2 10270.6 5586.43 4668.44 4587.8 2156.02 1461.37 1313.02 1304.67 1222.85 2641.79 1043.57 1095.37 969.651 886.803 1830.33 714.16 873.651 667.388 655.636 637.894 888.058 540.087 1993.75 504.022 475.437 469.662
threshold=1.0000000180025095e-35 1.558373055510027 -0.36936304306858975 -0.12197990689375665 -0.53923952470519021 -0.021933358088619449 -2.0583786174597001 1.9272665340159063 -2.0583786174597001 1.519151813299213 0.099543128108508849 1.0000000180025095e-35 -0.0046439948053412861 -2.0583786174597001 -0.53441350361282181 -0.12383968092908872 0.083476469079391782 1.8712300128153394 1.8543938819156462 -0.39125182328918467 -0.53923952618327287 0.0014000958623556403 1.4948512924046538 1.8712723243152978 1.8713741610885049 1.3172358253446206 -0.53441353641456002 -0.59377397401434218 1.8712394684538898 1.4883281737577339
decision_type=2 2 2 2 2 2 2 2 2 2 2 2 2 2 2 2 2 2 2 2 2 2 2 2 2 2 2 2 2 2
left_child=1 7 10 6 8 12 -4 9 -5 19 21 29 27 -14 15 -13 -8 -18 -19 20 -1 25 -3 -21 -25 28 -27 -6 -2 -11
right_child=2 22 3 4 5 -7 16 -9 -10 11 -12 14 13 -15 -16 -17 17 18 -20 23 -22 -23 -24 24 -26 26 -28 -29 -30 -31
leaf_value=-0.053021001710942289 0.073104730046744712 -0.036778751197219323 0.057078374796202452 0.059534734364829339 0.073357719992341128 -0.055157316291350816 -0.056843662751279313 0.058798238802446806 -0.057952474770431944 0.093771882102632112 -0.052699464825941539 0.090775818442899558 0.086486796682961872 -0.060770751049952214 0.03859474095121674 -0.046037521604981195 -0.057229113267390191 0.065106907356359614 -0.058989399753450626 -0.056190119365249105 0.07556116192473368 -0.059626612479445 0.073774906107522936 -0.00012203593859504308 -0.048542319541994478 0.073975505246293108 -0.066766997011338328 -0.052355362375628871 -0.05010910578906419 -0.059803821963863052
leaf_weight=305.83399841189384 50323.447556808591 136.09755952656269 1083.3565640598536 480.08440731465816 31015.765533804893 900.60893321782351 11025.371624819934 914.27918727695942 2092.4415507912636 279.24732013046741 212.60592783242464 151.1468780040741 699.6257376819849 539.36982857435942 443.25987175107002 4562.261359013617 901.22527177631855 650.60521103441715 546.91031225770712 101599.24554979056 232.5562818646431 96.399108685553074 9176.1272897720337 1144.5917586758733 5484.0068116113544 1096.5572631806135 326.56660330295563 79.936779975891113 78.413350254297256 60.583452701568604
leaf_count=2809 229028 1077 4917 2056 141355 8254 104828 3907 19584 1317 1826 675 2892 3229 2050 39302 7264 3207 4263 961082 1070 625 41945 10000 47378 4997 1695 394 368 435
internal_value=-0.000606263 -0.0434157 0.0515656 0.0309919 0.0602225 0.0676725 -0.0426794 -0.0527601 -0.036027 -0.0536527 0.0713031 -0.028499 0.0710936 0.0223814 -0.0347525 -0.0416503 -0.0509141 -0.0197639 0.00843161 -0.0549239 0.00251973 0.0718109 0.0721592 -0.0552096 -0.0401814 0.0720553 0.0416791 0.0730346 0.072913 0.0663931
internal_weight=226639 124489 102149 50015.3 35807.8 33235.3 14207.5 115177 2572.53 114263 52134 5496.5 32334.7 1239 5156.67 4713.41 13124.1 2098.74 1197.52 108766 538.39 51921.4 9312.22 108228 6628.6 51825 1423.12 31095.7 50401.9 339.831
internal_count=1653829 1113047 540782 302243 177764 156124 124479 1070025 21640 1066118 238539 43779 147870 6121 42027 39977 119562 14734 7470 1022339 3879 236713 43022 1018460 57378 236088 6692 141749 229396 1752
is_linear=0
shrinkage=0.05


Tree=17
num_leaves=31
num_cat=0
split_feature=0 5 8 3 6 72 28 7 28 22 15 44 47 13 4 28 8 8 1 8 3 47 1 26 20 45 11 23 63 22
split_gain=189363 50504.6 15279.4 40090.3 9517.3 5178.03 4377.02 4318.55 2135.07 1448.37 1226.05 2007.35 1313.61 1216.64 1151.59 2431.14 948.838 843.229 888.919 678.86 815.887 676.155 654.163 882.583 651.06 630.016 1344.48 615.437 485.968 482.104
threshold=1.0000000180025095e-35 1.558373055510027 -0.36936304306858975 -0.12197990689375665 -0.53923952470514014 -0.021933358088619449 -2.0583786174597001 1.9956335184590976 -2.0583786174597001 1.519151813299213 -0.15050880869412975 -0.67116317379951174 3.8727825126623352 0.099543128108508849 -0.0046439948053412861 -2.0583786174597001 0.083476469079391782 2.7001694708436559 1.8712300128153394 -0.39125182328918467 -0.12376152368769239 3.9485388582906058 1.8712723243152978 -0.0045932579629459199 1.4883281737577339 0.23055783934235904 -0.53441349434972951 0.019983107908078578 1.4680581667438821 1.4116458061837625
decision_type=2 2 2 2 2 2 2 2 2 2 2 2 2 2 2 2 2 2 2 2 2 2 2 2 2 2 2 2 2 2
left_child=1 7 13 6 8 14 -4 9 -5 19 11 24 28 25 29 -16 -8 18 -18 20 -1 -14 -21 -24 -11 -2 -27 -3 -12 -6
right_child=2 27 3 4 5 -7 16 -9 -10 10 12 -13 21 -15 15 -17 17 -19 -20 22 -22 -23 23 -25 -26 26 -28 -29 -30 -31
leaf_value=0.071471209307223157 0.070742747462578304 0.071995746830342308 0.054903932559159332 0.058128245640864912 0.071605403257068087 -0.054678715493958419 -0.056457676054172713 0.057369355668080796 -0.057827973213134855 0.07137944949118942 -0.052568103554090299 -0.055818350283934552 0.14621537896945935 -0.052092953123724819 0.083228628629672508 -0.059706438655210463 -0.05411702797166025 -0.051678526233842642 0.044721863935292039 -0.055789325211650503 -0.054306071005023299 -0.058022298119322163 0.094486013687940282 -0.041894212319796856 -0.06099601364974773 -0.076335635269121294 0.073492246531414715 -0.041939272947196432 0.1189679033028801 -0.091013385198847066
leaf_weight=235.01692283153534 49901.957837298512 8942.863227814436 1070.2838982194662 494.43413756787777 30202.907724022865 863.29167763143778 10557.543387554586 890.57487691938877 2013.980905264616 825.2663732022047 3488.8657794073224 695.59493146836758 133.00990131497383 204.53214581310749 690.88053573668003 522.45663502067327 337.64050192385912 1014.1798279285431 697.23840229213238 97326.504544354975 285.63876451551914 58.280602835118771 120.89962483942509 6317.8922532349825 104.66531075537205 229.00452772527933 432.52924171090126 120.11681444942951 41.78373309969902 45.645247980952263
leaf_count=1099 233483 42057 4917 2157 141416 8249 104828 3859 19631 3984 31448 6126 702 1826 2892 3227 2865 7923 3946 961105 2780 522 502 56876 822 1269 1961 965 200 192
internal_value=-0.000610172 -0.0429856 0.0504336 0.0303671 0.0588488 0.0661293 -0.0421728 -0.0522903 -0.0349718 -0.0531811 -0.0278019 0.00842553 -0.0436239 0.0696079 0.0694441 0.0216815 -0.0504145 -0.0192779 0.0124746 -0.0544825 0.00246809 0.0839902 -0.0547682 -0.0393334 0.0564804 0.0701001 0.021626 0.0704857 -0.050538 0.07136
internal_weight=218865 119587 99278.5 48510.5 34833.6 32325.2 13676.9 110524 2508.42 109633 5347.47 1625.53 3721.94 50768 31461.9 1213.34 12606.6 2049.06 1034.88 104286 520.656 191.291 103765 6438.79 929.932 50563.5 661.534 9062.98 3530.65 30248.6
internal_count=1653829 1113047 540782 302243 177764 155976 124479 1070025 21788 1066166 43804 10932 32872 238539 147727 6119 119562 14734 6811 1022362 3879 1224 1018483 57378 4806 236713 3230 43022 31648 141608
is_linear=0
shrinkage=0.05


Tree=18
num_leaves=31
num_cat=0
split_feature=0 2 8 1 16 4 7 28 28 28 22 13 8 8 47 44 21 1 8 16 1 1 19 4 47 8 47 6 8 1
split_gain=177248 47480.1 14090.6 37352.1 8481.93 4802.38 4066.87 3653.6 3348.21 2013.24 1414.45 1132.86 971.295 1483.83 842.049 862.898 1963.68 665.887 642.291 766.792 650.321 888.519 595.644 546.835 510.071 501.14 499.903 471.41 461.5 610.381
threshold=1.0000000180025095e-35 0.3898194988616675 -0.36936304306858975 -0.53441353636527278 -0.53923952700459277 -0.0046439948053412861 1.9956335184590976 -2.0583786174597001 -2.0583786174597001 -2.0497170424381439 1.5290872413742618 0.028744929449770699 2.4739341707827598 2.6687504632798245 1.408487507103225 -0.67116317379951174 -0.0015609518789972989 1.8712300128153394 -0.39125182328918467 -0.53923952618327287 1.8712723243152978 1.8713741610885049 1.0000000180025095e-35 0.0029591437511260516 -0.59377397401434218 -0.36668843087871372 -0.59342534840169481 1.854248454260109 -0.36668843087871372 1.8715357028945745
decision_type=2 2 2 2 2 2 2 2 2 2 2 2 2 2 2 2 2 2 2 2 2 2 2 2 2 2 2 2 2 2
left_child=1 6 11 4 9 22 10 27 -7 24 18 23 -9 17 -12 16 -16 -14 19 -1 -20 -22 26 -2 -4 -3 -6 -5 -8 -30
right_child=2 25 3 7 5 8 28 12 -10 -11 14 -13 13 -15 15 -17 -18 -19 20 -21 21 -23 -24 -25 -26 -27 -28 -29 29 -31
leaf_value=-0.052066474455964351 0.068880824433825524 0.07018323411465488 0.069958213098205088 0.061785220518103603 0.070096622694312868 0.07248662556299322 0.072736799241801861 -0.055202937855302309 -0.057187632233294552 -0.057757490370200462 -0.057835767094143224 -0.022034434267017268 -0.057482017117569395 -0.046847460909806508 0.097726326179290557 -0.055355417548490909 -0.018436408825248458 0.087262613655931145 -0.055233231760928869 0.072404533584815356 0.0020034573576751878 -0.047339380855989793 -0.047103130497139288 -0.057904368006391621 -0.12769772116489828 -0.042037587158270155 -0.087128504029962556 -0.061632220075104098 -0.11374599516325629 0.080102185959940189
leaf_weight=282.43075986206532 48955.690942533314 8716.2162353545427 457.53725901246071 886.50522176921368 29359.771541833878 797.29400169104338 713.61521762609482 10515.216993071139 1325.1283590197563 1869.1055313870311 1262.8593301922083 346.74368715286255 99.264764718711376 1025.8635111823678 469.34432175755501 733.67619132995605 1618.0349247530103 398.20661196112633 94293.951083064079 220.20099051296711 1109.526267580688 5133.6705516651273 109.31848131120205 85.195035427808762 35.147430017590523 100.63234492391348 50.644318699836731 84.770905286073685 84.497683808207512 78.181765526533127
leaf_count=2809 235447 42128 2042 3996 141265 3674 3186 108201 11399 18991 11381 2567 881 8209 2164 6765 12959 1988 971715 1071 10000 47378 661 525 156 818 239 541 343 330
internal_value=-0.000613803 -0.0425833 0.0493731 0.0297806 0.0573474 0.0641698 -0.0518564 -0.042271 -0.00847513 -0.0340566 -0.0527506 0.0680238 -0.0497973 -0.0124835 -0.0239023 -0.00871178 0.00768262 0.0583805 -0.0539166 0.00246378 -0.0541985 -0.0385703 0.0693929 0.0686606 0.0558577 0.0689024 0.0698259 0.0510136 0.0554121 -0.0205849
internal_weight=211218 114817 96401.4 47013.8 34003.9 31642.2 106000 13009.8 2122.42 2361.79 105124 49387.6 12038.6 1523.33 4083.91 2821.06 2087.38 497.471 101040 502.632 100537 6243.2 29519.7 49040.9 492.685 8816.85 29410.4 971.276 876.295 162.679
internal_count=1653829 1113047 540782 302243 178427 157238 1070101 123816 15073 21189 1066242 238539 119279 11078 33269 21888 15123 2869 1032973 3880 1029093 57378 142165 235972 2198 42946 141504 4537 3859 673
is_linear=0
shrinkage=0.05


Tree=19
num_leaves=31
num_cat=0
split_feature=0 5 8 3 6 72 12 28 28 22 30 13 25 8 14 1 6 40 8 8 1 26 1 4 25 22 8 16 22 30
split_gain=166024 44679.5 13001.1 34883.1 8209.02 4500.19 3911.35 3855.82 1886.93 1417.91 1269.49 1078.35 1017.65 935.737 851.473 774.095 1590.13 726.354 718.889 1109.31 682.14 895.54 974.35 618.321 615.69 1687.97 601.079 747.676 534.767 484.362
threshold=1.0000000180025095e-35 1.558373055510027 -0.36936304306858975 -0.12197990689375665 -0.53923952470514014 -0.021933358088619449 3.6575195639885596 -2.0583786174597001 -2.0497170424381439 1.5290872413742618 1.0000000180025095e-35 0.099543128108508849 0.058189610022898949 0.083476469079391782 -0.53441350361282713 1.8712300128153394 1.8543938819156462 0.86413771330350542 0.083476469079391782 -0.36668843087871372 1.8712723243152978 -0.0045932579629459199 1.8713741610885049 -0.0046439948053412861 1.2895382873268155 0.58110381444543768 -0.39125182328918467 -0.53923952618327287 1.4948512924046538 1.0000000180025095e-35
decision_type=2 2 2 2 2 2 2 2 2 2 2 2 2 2 2 2 2 2 2 2 2 2 2 2 2 2 2 2 2 2
left_child=1 6 11 7 8 12 9 -4 -5 20 -11 24 -6 -9 17 -15 -17 -12 19 -8 26 -22 -23 -14 29 -26 27 -1 -3 -2
right_child=2 28 3 4 5 -7 18 13 -10 10 14 -13 23 15 -16 16 -18 -19 -20 -21 21 22 -24 -25 25 -27 -28 -29 -30 -31
leaf_value=-0.05498911487451702 0.068238809178603463 -0.034497669656654087 0.051352114917240545 0.05439136665832825 -0.056764623658937599 -0.053873767654046723 0.070645828895075966 -0.055798573743644678 -0.05711343471856492 0.065803466328564042 -0.046288705538061567 -0.051254630253707717 0.068573395768248099 -0.055729496649742652 0.032262786299084044 0.059422245588514028 -0.058335339511788369 0.070395163787293519 0.48293628125755578 -0.083148927335258735 0.087648823561308084 0.0019348110955175208 -0.049991410141362665 0.029349930392442627 0.064070649185561754 -0.064085290214094856 -0.054941808124156069 0.070953329092617035 0.069136964139648135 -0.059010003879054689
leaf_weight=263.41474896669388 46256.533796079457 126.34626968204975 1033.8149777948856 477.67562612146139 166.51369810849428 797.33459165692329 764.58625130355358 9677.1227416694164 1844.3324205502868 364.23873956501484 3050.2564241960645 193.48873393982649 28499.369858667254 804.12554795295 450.27945030480623 657.04281423985958 508.58012993633747 139.47090598940849 9.5598602592945081 138.48572389036417 139.97144331037998 1110.6694571748376 4841.0343891084194 1041.4773421436548 1139.7982801273465 331.71275326609612 90193.050589971244 213.24396696686745 8421.2119201123714 74.904035121202469
leaf_count=2773 228889 1077 4917 2165 1608 8249 3581 104828 19623 1918 28472 1826 141234 7264 2251 3207 4263 766 103 982 584 9998 46900 4885 5639 1845 970628 1069 41945 340
internal_value=-0.000616079 -0.0421881 0.0483906 0.0292432 0.0564511 0.0633495 -0.0514179 -0.0411902 -0.034175 -0.0523511 -0.0231951 0.066545 0.0664958 -0.0494045 -0.0321008 -0.0179915 0.00804271 -0.0411867 0.0516273 0.0470615 -0.0535577 -0.0373613 -0.0403013 0.0671906 0.0670218 0.0351813 -0.0546459 0.00135406 0.0676051 0.0680331
internal_weight=203730 110226 93503.8 45507.4 32826.7 30504.7 101678 12680.7 2322.01 100766 4004.25 47996.4 29707.4 11646.9 3640.01 1969.75 1165.62 3189.73 912.632 903.072 96761.4 6091.68 5951.7 29540.8 47802.9 1471.51 90669.7 476.659 8547.56 46331.4
internal_count=1653829 1113047 540782 302243 177764 155976 1070025 124479 21788 1065359 33407 238539 147727 119562 31489 14734 7470 29238 4666 4563 1031952 57482 56898 146119 236713 7484 974470 3842 43022 229229
is_linear=0
shrinkage=0.05


Tree=20
num_leaves=31
num_cat=0
split_feature=0 5 8 3 6 4 12 28 11 28 22 30 13 8 14 8 1 1 26 1 40 8 8 8 16 28 23 1 22 4
split_gain=155649 42039.3 12056.6 32563.3 7635.92 4197.24 3684.64 3621.73 2976.26 1774.71 1398.07 1168.5 1004.74 915.551 793.566 738.455 714.236 691.149 826.243 943.009 667.568 634.889 788.502 571.022 701.182 532.625 504.793 443.916 442.779 432.615
threshold=1.0000000180025095e-35 1.558373055510027 -0.36936304306858975 -0.12197990689375665 -0.53923952470514014 -0.0046439948053412861 3.6575195639885596 -2.0583786174597001 -0.53441351771200518 -2.0497170424381439 1.5290872413742618 1.0000000180025095e-35 0.028744929449770699 0.083476469079391782 -0.53441350361282713 2.7001694708436559 1.8712300128153394 1.8712723243152978 -0.0045932579629459199 1.8713741610885049 0.86413771330350542 -0.36668843087871372 0.083476469079391782 -0.39125182328918467 -0.53923952618327287 -1.3974282635231288 0.019983107908078578 1.8710997181988669 1.4116458061837625 0.0029591437511260516
decision_type=2 2 2 2 2 2 2 2 2 2 2 2 2 2 2 2 2 2 2 2 2 2 2 2 2 2 2 2 2 2
left_child=1 6 12 7 9 28 10 27 -7 -5 17 -12 25 -9 20 16 -15 23 -19 -20 -13 -8 -23 24 -1 -2 -3 -4 -6 -27
right_child=2 26 3 4 5 8 21 13 -10 -11 11 14 -14 15 -16 -17 -18 18 19 -21 -22 22 -24 -25 -26 29 -28 -29 -30 -31
leaf_value=-0.054600109588528178 -0.067696900922347147 0.067765348382469462 0.059932546108683551 0.052653548663364559 0.067289549736210527 -0.058390306000076157 0.068685737271531919 -0.055474289938890323 0.06973398195294582 -0.056774848143319026 0.063013784257608119 -0.045528142023392795 -0.021164089095121696 -0.052348256612665435 0.030629018391146009 -0.049811875684262957 0.039877346284320908 0.083768359413297855 0.0018353540923267261 -0.049405899715461471 0.064755942873076178 -0.081316580114101408 0.31710829688267494 -0.05459322888494679 0.069624871154034512 0.066256263110681626 -0.039733780194150761 -0.054881731887585009 -0.089804365645790057 -0.056533421246341135
leaf_weight=252.30798979103565 74.541295163333416 8172.4749159514904 926.62233528494835 468.99149169027805 27632.531611293554 1185.9192525967956 747.51923416554928 9257.6126514151692 733.67161732912064 1764.5809675604105 361.41816546022892 2948.7410286515951 334.15513724088669 299.88035448640585 450.57436767220497 922.73256881535053 699.89672803133726 139.15206816792488 1112.2716215029359 4658.1316415816545 143.91448664665222 134.62443304806948 13.679788798093794 86328.235737808049 206.6151459813118 46075.601333640516 110.68422855436802 92.600973814725876 44.927662298083305 71.844666078686714
leaf_count=2773 467 42057 4328 2165 141416 10847 3581 104828 3521 19623 1918 28472 2567 2865 2251 7923 3946 584 9998 46900 766 982 103 970628 1069 235070 965 589 192 435
internal_value=-0.00061847 -0.0418129 0.0474855 0.0287285 0.0553483 0.0620758 -0.0510003 -0.0407282 -0.00942094 -0.0337978 -0.0519364 -0.0226285 0.0652248 -0.0489539 -0.0313642 -0.0175558 0.0122145 -0.0531709 -0.0366256 -0.0395289 -0.0403962 0.0499369 -0.0445653 -0.0542975 0.00132813 0.0658494 0.0663289 0.0495012 0.0670345 0.0660651
internal_weight=196366 105780 90586.1 44030 31830.6 29597.1 97497.2 12199.3 1919.59 2233.57 96601.4 3904.65 46556.1 11180.1 3543.23 1922.51 999.777 92696.7 5909.56 5770.4 3092.66 895.823 148.304 86787.2 458.923 46222 8283.16 1019.22 27677.5 46147.4
internal_count=1653829 1113047 540782 302243 177764 155976 1070025 124479 14368 21788 1065359 33407 238539 119562 31489 14734 6811 1031952 57482 56898 29238 4666 1085 974470 3842 235972 43022 4917 141608 235505
is_linear=0
shrinkage=0.05


Tree=21
num_leaves=31
num_cat=0
split_feature=0 2 8 3 6 4 10 28 11 3 28 13 8 8 44 21 1 1 21 41 26 1 47 25 22 8 16 1 52 30
split_gain=146013 39582.2 11174.7 30439.4 7117.55 3926.87 3466.18 3403.16 2763.66 2108.14 1670.16 962.566 912.69 1265.28 685.316 1510.68 664.697 790.771 2286.5 4647.6 856.228 651.499 637.104 606.31 1569.84 537.9 658.15 503.304 499.974 452.938
threshold=1.0000000180025095e-35 0.3898194988616675 -0.36936304306858975 -0.12197990689375665 -0.53923952470514014 -0.0046439948053412861 1.4204285437489734 -2.0583786174597001 -0.53441351771200518 -0.12383843852536355 -2.0497170424381439 0.099543128108508849 2.4739341707827598 2.7001694708436559 -0.67116317380289015 -0.0015609518789972989 1.8712723243152978 1.8713741610885049 -0.0053559912868913978 -0.54633350362398148 -0.0045932579629459199 1.8712449389332011 1.408487507103225 1.2895382873268155 0.58110381444543768 -0.39125182328918467 -0.53923952618327287 1.8712394684538898 1.1215973950505767 1.0000000180025095e-35
decision_type=2 2 2 2 2 2 2 2 2 2 2 2 2 2 2 2 2 2 2 2 2 2 2 2 2 2 2 2 2 2
left_child=1 6 11 7 10 -6 16 -4 -7 -8 -5 23 -9 21 15 22 25 18 -18 -20 -19 -14 -11 27 -25 26 -1 29 -17 -2
right_child=2 -3 3 4 5 8 9 12 -10 14 -12 -13 13 -15 -16 28 17 20 19 -21 -22 -23 -24 24 -26 -27 -28 -29 -30 -31
leaf_value=-0.054225644906739513 0.065923152154252082 0.065102040074390854 0.048202401401781135 0.051003480184019748 0.065811179904034942 -0.057844438149372207 0.055060721052152678 -0.054247704566668553 0.067038613861212779 -0.057678296007719621 -0.056454723562588398 -0.050448383008735567 0.074173011781600767 -0.048955368712431994 -0.055587102640376876 0.1273660607544494 -0.049956378136613064 0.08518265468306685 0.29469908539549861 -0.056374813447798017 -0.04882897910096743 -0.056065196438753198 0.097222513261366689 0.0612282162856767 -0.063954980051689078 -0.05402692632806777 0.068407496836562151 -0.057410750166364488 -0.04329285125871233 -0.058011762973280395
leaf_weight=241.61834515631199 43390.901612445712 8026.3777301982045 994.91949623823166 460.18187363445759 26804.545899897814 1138.4573479369283 1077.3239394649863 9278.5043706446886 725.22615876793861 80.292830340564251 1687.7985174357891 183.06948522478342 449.20935879647732 892.69891349971294 1210.502297103405 44.660855367779732 733.38927185535431 122.44753727316856 170.87168028950691 210.28167822957039 4481.98489882797 122.12993222475052 383.11718771606684 1075.0706595405936 326.4987354055047 83405.300193205476 199.94654098153114 83.161008283495903 1099.1275755167007 73.846420928835869
leaf_count=2773 228521 42946 4917 2165 141608 10847 5057 108191 3521 755 19623 1826 2707 7923 12318 233 6584 515 1534 1883 46900 741 1827 5639 1845 978300 1069 368 10353 340
internal_value=-0.000620249 -0.0414518 0.0466378 0.0282556 0.0543542 0.0609317 -0.0506026 -0.0402651 -0.00924796 -0.00442865 -0.033433 0.0639697 -0.0484585 -0.0117691 -0.0271739 -0.00577379 -0.0526106 -0.0361178 0.00167213 0.101012 -0.0452652 0.0463332 0.0703836 0.0644357 0.0320665 -0.0537355 0.0013043 0.0654775 -0.0366292 0.0657126
internal_weight=189173 101487 87686.2 42553.7 30816.2 28668.2 93460.9 11737.5 1863.68 3895.02 2147.98 45132.5 10742.5 1464.04 2817.7 1607.2 89565.8 5718.98 1114.54 381.153 4604.43 571.339 463.41 44949.5 1401.57 83846.9 441.565 43547.9 1143.79 43464.7
internal_count=1653829 1113047 540782 302243 177764 155976 1070101 124479 14368 30543 21788 238539 119562 11371 25486 13168 1039558 57416 10001 3417 47415 3448 2582 236713 7484 982142 3842 229229 10586 228861
is_linear=0
shrinkage=0.05


Tree=22
num_leaves=31
num_cat=0
split_feature=0 5 8 3 6 4 10 28 11 3 28 8 13 1 6 1 1 21 41 26 44 37 45 11 8 16 29 43 1 22
split_gain=137082 37338.6 10408.2 28472 6641.39 3678.49 3298.73 3194.72 2569.25 1964.89 1572.65 905.735 898.655 697.264 1377.58 669.701 755.682 1963.55 3269.73 797.338 642.258 1590.55 578.761 1154.88 510.465 618.241 475.689 472.751 469.77 457.55
threshold=1.0000000180025095e-35 1.558373055510027 -0.36936304306858975 -0.12197990689375665 -0.53923952470514014 -0.0046439948053412861 1.4204285437489734 -2.0583786174597001 -0.53441351771211121 -0.12383843852536355 -2.0497170424381439 0.083476469079391782 0.099543128108508849 1.8712300128153394 1.8543938819156462 1.8712723243152978 1.8713741610885049 -0.0053559912868913978 -0.54633350362398148 -0.0045932579629459199 -0.67116317380289015 -0.53441350600914739 0.23055783934235904 -0.53441349434972951 -0.39125182328918467 -0.53923952618327287 2.6928104856757553 -0.67116317179131235 1.8712394684538898 1.4948512924046538
decision_type=2 2 2 2 2 2 2 2 2 2 2 2 2 2 2 2 2 2 2 2 2 2 2 2 2 2 2 2 2 2
left_child=1 6 12 7 10 -6 15 -4 -7 -8 -5 -9 22 -13 -15 24 17 -17 -19 -18 21 -11 26 -24 25 -1 28 -23 -2 -3
right_child=2 29 3 4 5 8 9 11 -10 20 -12 13 -14 14 -16 16 19 18 -20 -21 -22 27 23 -25 -26 -27 -28 -29 -30 -31
leaf_value=-0.053864230318364674 0.064461989271900777 -0.032929919194275695 0.046512179278159926 0.049431065490171178 0.064669114693830021 -0.058105052381295312 0.053222867093769048 -0.054881106347167474 0.063359898196853323 -0.045617984274079662 -0.056151740483889295 -0.054459945602137766 -0.049891938672203026 0.05480996895995021 -0.057490782653170584 -0.049318564979508414 0.081769495379588886 0.22578908563620803 -0.055920282071492078 -0.048259102877408512 -0.055189603412499968 0.082164539879986287 -0.07758981155162524 0.066919034667586308 -0.053685281403562574 0.06728837958225424 -0.049515359746011955 -0.026749153927244102 -0.055409601527413636 0.065614032037289841
leaf_weight=231.33770233392715 42728.073805645108 119.63685721158981 979.90732565522194 451.30691835284233 25936.061803087592 1078.6756000965834 1061.110068179667 8471.9545624405146 729.97768212109804 962.14435543119907 1613.9274286553264 726.99203875660896 176.0343201905489 660.18044010549784 465.72646887600422 706.41585177183151 121.21127587556839 210.59664392471313 201.61083410680294 4312.472884863615 1159.3408044055104 462.29434089362621 217.06811904907227 380.80356451869011 79836.431552827358 193.27747172117233 92.110387057065964 127.00646539032459 81.888714745640755 7642.2690633535385
leaf_count=2773 232581 1077 4917 2165 141608 10733 5066 104828 3635 9710 19623 7264 1826 3207 4263 6584 515 1534 1883 46900 12318 2394 1269 1961 978277 1069 534 1002 368 41945
internal_value=-0.000623234 -0.0411063 0.0458548 0.0277994 0.0534225 0.0598614 -0.0502212 -0.0397669 -0.00908145 -0.00445729 -0.0330792 -0.0479554 0.0628514 -0.0162893 0.00835725 -0.0522327 -0.0354389 0.0012845 0.0880049 -0.0447043 -0.0270356 -0.00599712 0.0633076 0.0144525 -0.0533945 0.00128234 0.0639885 0.0586914 0.0642327 0.0640951
internal_weight=182138 97347.2 84790.7 41114.7 29809.9 27744.7 89585.3 11304.8 1808.65 3771.9 2065.23 10324.9 43676 1852.9 1125.91 85813.4 5552.31 1118.62 412.207 4433.68 2710.79 1551.45 43499.9 597.872 80261 424.615 42902.1 589.301 42810 7761.91
internal_count=1653829 1113047 540782 302243 177764 155976 1070025 124479 14368 30490 21788 119562 238539 14734 7470 1039535 57416 10001 3417 47415 25424 13106 236713 3230 982119 3842 233483 3396 232949 43022
is_linear=0
shrinkage=0.05


Tree=23
num_leaves=31
num_cat=0
split_feature=0 5 8 3 6 4 10 28 11 3 28 8 13 1 1 21 41 26 1 6 44 3 25 22 8 16 76 47 19 30
split_gain=128785 35184.3 9698.98 26659 6204.01 3451.21 3166.45 3004.76 2392.99 1818.58 1481.63 885.957 847 673.72 722.527 1720.83 2489.96 743.355 658.654 1263.71 616.217 1473.2 501.044 1323.78 484.595 581.16 465.779 464.209 457.44 454.107
threshold=1.0000000180025095e-35 1.558373055510027 -0.36936304306858975 -0.12197990689375665 -0.53923952470514014 -0.0046439948053412861 1.4204285437489734 -2.0583786174597001 -0.53441351771200518 -0.12383879279114214 -2.0583786174597001 0.083476469079391782 0.028744929449770699 1.8712723243152978 1.8713741610885049 -0.0053559912868913978 -0.54633350362398148 -0.0045932579629459199 1.8712300128153394 1.8543938819156462 -0.67116317380289015 -0.12382767659776274 1.2895382873268155 0.58110381444543768 -0.39125182328918467 -0.53923952618327287 0.20615219688163181 -0.59377397401434218 1.0000000180025095e-35 1.0000000180025095e-35
decision_type=2 2 2 2 2 2 2 2 2 2 2 2 2 2 2 2 2 2 2 2 2 2 2 2 2 2 2 2 2 2
left_child=1 6 12 7 10 27 13 -4 -7 -8 -5 -9 22 24 15 -15 -17 -16 -13 -20 21 26 29 -24 25 -1 -11 28 -6 -2
right_child=2 -3 3 4 5 8 9 11 -10 20 -12 18 -14 14 17 16 -18 -19 19 -21 -22 -23 23 -25 -26 -27 -28 -29 -30 -31
leaf_value=-0.053514499856499413 0.063610608619281195 0.063094473743337362 0.044888030268343995 0.048036168084940059 0.064330160528236757 -0.056861398361785491 0.051674273936802698 -0.054604702143022932 0.062186773543424126 0.086493356777075245 -0.055834068066344715 -0.053973921466384224 -0.020197488287568753 -0.048691245620010482 0.078702468139448839 0.18493277946656439 -0.055487932776643878 -0.047694839609833131 0.051716304008888984 -0.057068830880622645 -0.054816211132417747 -0.042060492413069278 0.058856115282280477 -0.062519073618718418 -0.053368272392576716 0.066256444936750966 -0.025040138296378925 -0.05774723145838026 -0.070806966196559504 -0.065576134067085096
leaf_weight=221.45708076655865 40552.407786920667 7497.5165522992611 964.97940601408482 441.50156982243061 24930.383014604449 1048.2197542563081 1037.4390469938517 8098.5339964851737 706.71424847841263 411.92796633392572 1543.8213207498193 697.60626239329576 312.56540658324957 680.40252876281738 119.67654260993004 243.27571725845337 193.23464028537273 4149.4603817760944 664.56987516582012 446.20521412044764 1110.2337609305978 983.9980720281601 1009.205829501152 288.96698351949453 76382.481650747359 186.64158935844898 121.13373479247093 78.553274855017662 62.779335424304008 68.138280153274536
leaf_count=2773 228357 43022 4917 2157 140871 10847 5028 104828 3521 2036 19631 7264 2567 6584 515 1534 1883 46900 3207 4263 12319 10163 5637 1664 978277 1069 944 382 355 314
internal_value=-0.000625454 -0.0407786 0.0451273 0.0273789 0.0525528 0.0588646 -0.049851 -0.0393354 -0.00892054 -0.00437727 -0.0327351 -0.0475391 0.0618052 -0.0518789 -0.0347845 0.00101872 0.0785032 -0.0441515 -0.015897 0.00801664 -0.0265103 -0.00579517 0.0624167 0.0318386 -0.0530779 0.00126206 0.0611483 0.0636093 0.0639907 0.0633939
internal_weight=175254 93338.9 81915.2 39683.9 28812 26826.6 85841.4 10871.9 1754.93 3664.73 1985.32 9906.92 42231.3 82176.6 5386.05 1116.91 436.51 4269.14 1808.38 1110.78 2627.29 1517.06 41918.7 1298.17 76790.6 408.099 533.062 25071.7 24993.2 40620.5
internal_count=1653829 1113047 540782 302243 177764 155976 1070025 124479 14368 30490 21788 119562 238539 1039535 57416 10001 3417 47415 14734 7470 25462 13143 235972 7301 982119 3842 2980 141608 141226 228671
is_linear=0
shrinkage=0.05


Tree=24
num_leaves=31
num_cat=0
split_feature=0 2 8 3 6 4 10 8 28 3 28 6 49 33 28 1 1 21 41 26 44 21 47 8 30 47 47 44 8 16
split_gain=121055 33168.8 9039.3 24992.3 5805.72 3245.37 3061.21 2875.94 2260.14 1673.79 1396.7 1075.74 834.89 1189.1 693.682 677.595 690.53 1527.92 1987.23 693.683 596.893 1260.11 527.918 516.065 460.923 460.633 2203.26 652.248 468.1 546.65
threshold=1.0000000180025095e-35 0.3898194988616675 -0.36936304306858975 -0.12197990689375665 -0.53923952470514014 -0.0046439948053412861 1.4204285437489734 0.083476469079391782 -2.0583786174597001 -0.12383879279114214 -2.0497170424381439 -0.53923952464627189 -0.0012868419060092561 1.0000000180025095e-35 -2.0610011498967826 1.8712723243152978 1.8713741610885049 -0.0053559912868913978 -0.54633350362398148 -0.0045932579629459199 -0.67116317380289015 -0.0015609518789972989 1.408487507103225 2.7001694708436559 2.4975833902135371 3.8727825126623352 3.9354653978163299 -0.67116317380472601 -0.39125182328918467 -0.53923952618327287
decision_type=2 2 2 2 2 2 2 2 2 2 2 2 2 2 2 2 2 2 2 2 2 2 2 2 2 2 2 2 2 2
left_child=1 6 12 7 10 -6 15 -4 -7 -8 -5 -9 24 -14 -13 25 17 -17 -19 -18 21 22 -11 -16 -2 28 27 -27 29 -1
right_child=2 -3 3 4 5 8 9 11 -10 20 -12 14 13 -15 23 16 19 18 -20 -21 -22 -23 -24 -25 -26 26 -28 -29 -30 -31
leaf_value=-0.053175174684202908 0.061990023866722511 0.06201921136286398 -0.054395747816956053 0.046500754678271361 0.062663458771518979 0.063362062323926271 0.049984283579883756 0.044248736614504264 -0.054789285572773051 -0.056736176682032471 -0.055592596100363968 0.065031847521140107 -0.069459491832394596 0.062185631705623912 -0.00028855263100518828 -0.048072700384790681 0.075927792341641043 0.15751894953431486 -0.05507582880173667 -0.047134872638326712 -0.054466998837999797 -0.03468509877199074 0.091630004128706116 -0.060786575478842454 -0.068430343884796088 0.19256744425895372 -0.054435536825256453 -0.046017311397695763 -0.05354085641364268 0.065302058411696048
leaf_weight=211.96688015758991 40033.326147280633 7255.9443408548832 7752.1105591133237 433.47347272187471 24199.847361281514 663.04089085757732 1017.9517877921462 1077.2879106923938 1039.0689301341772 72.019862547516823 1474.6980516240001 208.24483521282673 295.94893950223923 408.02670353651047 657.98323910683393 655.33664673566818 117.89243099093437 270.53326258063316 185.15105129778385 3992.8003244400024 1062.9417393952608 1061.3502520546317 357.95111690461636 759.2638273909688 67.85982258617878 137.40176874399185 766.93412151187658 36.191648744046688 72103.375759691 180.06753623485565
leaf_count=2773 233387 42946 104899 2165 141608 3420 5021 5641 10948 755 19623 1066 2360 2396 5277 6584 515 1534 1883 46900 12319 10621 1827 7596 396 933 10270 327 966770 1069
internal_value=-0.000626834 -0.0404576 0.0444508 0.026993 0.051769 0.0579697 -0.0495002 -0.0389113 -0.00876454 -0.00423092 -0.0324004 0.0055011 0.0608217 0.00684247 -0.0201787 -0.0515561 -0.0341527 0.000821736 0.0711387 -0.0436055 -0.0258373 -0.0054315 0.0667788 -0.0326992 0.0617693 -0.0527936 -0.0180269 0.142826 -0.0532446 0.00124327
internal_weight=168556 89485.8 79070.2 38265 27810.1 25902 82229.9 10454.9 1702.11 3572.21 1908.17 2702.78 40805.2 703.976 1625.49 78657.7 5221.71 1111.02 455.684 4110.69 2554.26 1491.32 429.971 1417.25 40101.2 73435.9 940.528 173.593 72495.4 392.034
internal_count=1653829 1113047 540782 302243 177764 155976 1070101 124479 14368 30543 21788 19580 238539 4756 13939 1039558 57416 10001 3417 47415 25522 13203 2582 12873 233783 982142 11530 1260 970612 3842
is_linear=0
shrinkage=0.05


Tree=25
num_leaves=31
num_cat=0
split_feature=0 5 8 3 6 4 10 8 11 15 28 6 49 33 1 1 21 41 26 28 25 44 8 1 29 5 8 1 47 47
split_gain=113827 31320.3 8435.81 23432.2 5434.75 3050.07 2911.73 2762.33 2119.56 1587.36 1317.07 985.727 780.678 1114.72 678.195 659.446 1369.17 1636.23 647.832 643.492 615.004 938.129 498.688 471.033 474.192 1261.21 460.839 479.385 452.023 450.91
threshold=1.0000000180025095e-35 1.558373055510027 -0.36936304306858975 -0.12197990689375665 -0.53923952470514014 -0.0046439948053412861 1.4204285437489734 0.083476469079391782 -0.53441351771211121 -0.15050880869412975 -2.0497170424381439 -0.53923952464627189 -0.0012868419060092561 1.0000000180025095e-35 1.8712723243152978 1.8713741610885049 -0.0053559912868913978 -0.54633350362398148 -0.0045932579629459199 -2.0610011498967826 0.79628261196686678 -0.67116317379767676 2.7001694708436559 1.8712394684538898 2.1170945679349673 1.3357487214119781 -0.36668843087871372 1.8715357028945745 -0.59377397401434218 3.8727825126623352
decision_type=2 2 2 2 2 2 2 2 2 2 2 2 2 2 2 2 2 2 2 2 2 2 2 2 2 2 2 2 2 2
left_child=1 6 12 7 10 28 14 -4 -7 20 -5 -9 23 -14 29 16 -16 -18 -17 -13 26 -22 -21 24 -2 -26 -8 -28 -6 -1
right_child=2 -3 3 4 5 8 9 11 -10 -11 -12 19 13 -15 15 18 17 -19 -20 22 21 -23 -24 -25 25 -27 27 -29 -30 -31
leaf_value=-0.052954811328696998 0.061862941211650258 0.061199027015304913 -0.054145582710202859 0.045114352366202981 0.06214849748058017 -0.056880210923492915 0.061064841204969883 0.042519484764949315 0.057966897704746195 -0.042975005131778203 -0.05533417944919479 0.063652132407677309 -0.068656210889009681 0.061160308803370193 -0.047461355574742028 0.073402027846814627 0.1376929207743392 -0.05468219548815198 -0.046577983599430807 -0.00027417374572908792 0.057630762018567441 -0.053110718397178139 -0.060351015315160773 -0.057863401808799945 -0.074661891195584848 0.064197895591770346 -0.10714118085173099 0.069023575460873191 -0.057942504253173877 -0.017682012559105821
leaf_weight=69330.279045343399 37869.143753767014 7000.3964561969042 7407.2444738522172 424.68055830150843 23274.977598950267 955.99995081871748 1003.6112050786614 1065.3543286323547 692.93181945383549 1500.3481320142746 1409.1617854386568 202.27275878190994 284.72554877772927 394.46831171214581 631.20280253887177 115.90202152729034 293.3560990691185 177.35690806806087 3842.3362451344728 657.87019430845976 320.29092252999544 474.64680065214634 727.31507715582848 83.430340632796288 233.91159783303738 543.39759258925915 89.31026066839695 68.036823302507401 78.621932402253151 918.0421713963151
leaf_count=970599 228675 43022 104899 2165 141226 10733 5484 5641 3635 16892 19623 1066 2360 2396 6584 515 1534 1883 46900 5277 1685 5700 7596 368 1486 3254 399 330 382 11520
internal_value=-0.000628775 -0.040153 0.0437953 0.0266138 0.05101 0.0571038 -0.0491609 -0.0384661 -0.00861793 -0.00428644 -0.0320723 0.00531467 0.0598813 0.00673979 -0.0512204 -0.0335412 0.000668883 0.0652091 -0.0430648 -0.0196537 0.0253912 -0.00849151 -0.0318185 0.0608132 0.0610694 0.0224115 0.0485915 -0.0309676 0.0617442 -0.0524938
internal_weight=162071 85765.1 76305.5 36896.4 26836.4 25002.5 78764.7 10060.1 1648.93 3456.24 1833.84 2652.81 39409.1 679.194 75308.5 5060.15 1101.92 470.713 3958.24 1587.46 1955.9 794.938 1385.19 38729.9 38646.5 777.309 1160.96 157.347 23353.6 70248.3
internal_count=1653829 1113047 540782 302243 177764 155976 1070025 124479 14368 30490 21788 19580 238539 4756 1039535 57416 10001 3417 47415 13939 13598 7385 12873 233783 233415 4740 6213 729 141608 982119
is_linear=0
shrinkage=0.05


Tree=26
num_leaves=31
num_cat=0
split_feature=0 2 8 3 6 4 10 8 28 3 28 6 45 11 30 1 1 21 41 26 28 47 44 20 8 8 16 47 47 1
split_gain=107072 29530.1 7898.93 21986.8 5093.34 2873.37 2825.12 2654.27 2000.6 1445.98 1242.54 903.275 742.261 1055.26 711.164 678.094 629.203 1235.31 1377.47 605.392 597.061 559.781 735.732 1085.32 481.79 472.242 515.367 463.359 1951.4 444.461
threshold=1.0000000180025095e-35 0.3898194988616675 -0.36936304306858975 -0.12197990689375665 -0.53923952470514014 -0.0046439948053412861 1.4204285437489734 0.083476469079391782 -2.0583786174597001 -0.12383913190338729 -2.0583786174597001 -0.53923952464627189 0.23055783934235904 -0.53441349434972951 2.4975833902135371 1.8712723243152978 1.8713741610885049 -0.0053559912868913978 -0.54633350362398148 -0.0045932579629459199 -2.0610011498967826 1.408487507103225 -0.67116317380289015 1.4883281737577339 2.7001694708436559 -0.39125182328918467 -0.53923952618327287 3.8727825126623352 3.9354653978163299 1.8712394684538898
decision_type=2 2 2 2 2 2 2 2 2 2 2 2 2 2 2 2 2 2 2 2 2 2 2 2 2 2 2 2 2 2
left_child=1 6 12 7 10 -6 15 -4 -7 -8 -5 -9 14 -14 29 25 17 -17 -19 -18 -13 -11 23 -23 -22 26 -1 -27 -29 -2
right_child=2 -3 3 4 5 8 9 11 -10 21 -12 20 13 -15 -16 16 19 18 -20 -21 24 22 -24 -25 -26 27 -28 28 -30 -31
